svm_type c_svc
kernel_type rbf
gamma 0.03125
nr_class 10
total_sv 1795
rho 0.0955424 0.116 0.162495 0.0407987 0.194674 0.148 0.0518867 0.0863123 0.0981854 0.0203232 0.0627183 -0.0546584 0.102719 0.0379967 -0.0438205 -0.0137047 -0.00829184 0.0400946 -0.0744169 0.0755731 0.0165253 -0.0637692 -0.0326189 -0.0276838 -0.115872 0.0378808 -0.022323 -0.103173 -0.0734973 -0.0698446 0.153563 0.0921488 0.0106451 0.0393185 0.0454642 -0.0608814 -0.138831 -0.109942 -0.106893 -0.0788876 -0.061359 -0.0493485 0.0274489 0.033462 0.00789089
label 0 1 2 3 4 5 6 7 8 9
nr_sv 160 167 185 201 168 197 188 167 185 177
SV
0.9602905781410213 0.9799473864244169 1 0.9125822089813991 1 1 0.9218037932448542 1 1 1:4 2:8 3:7 4:7 5:6 6:7 7:11 8:10 9:7 10:6 11:6 12:8 13:4 20:2 21:8 22:11 23:11 24:9 25:6 26:4 27:8 28:11 29:11 30:7 32:3 
0.6608258080417204 0.675814134470907 0.7033166876810172 0.6287418618842755 0.7209751033970153 0.7310995694711405 0.6336975643701525 0.6919701888904922 0.6783082561360344 5:1 6:5 7:4 8:8 9:7 10:6 11:6 12:6 13:6 14:7 15:7 16:8 17:7 18:8 19:4 20:7 21:11 22:11 23:8 24:5 25:5 26:8 27:11 28:11 29:9 32:4 
0.5593789859119257 0.5717012525468191 0.608258913792223 0.5301831218025377 0.6232017718222134 0.6710867778624902 0.5375073154599898 0.6126557267472875 0.6070663066007146 6:7 7:8 8:6 9:6 10:6 11:6 12:6 13:6 14:6 15:6 16:6 17:8 18:4 19:2 21:7 22:11 23:12 24:7 25:5 26:4 27:6 28:12 29:12 30:7 
0.3571588532488869 0.3648351024556641 0.3882978258050906 0.3394816242890774 0.3940238284350378 0.3848730864651282 0.3435921964878982 0.3853785566684934 0.4124820174499409 1:4 2:8 3:9 4:6 5:6 6:6 7:6 8:6 9:6 10:6 11:7 12:8 13:4 14:1 15:1 20:2 23:9 24:11 25:11 26:6 27:5 28:5 29:6 30:11 31:11 32:7 
1 1 1 1 1 1 1 1 1 3:3 4:5 5:8 6:8 7:11 8:10 9:6 10:7 11:7 12:7 13:5 14:6 15:8 16:4 20:11 21:11 22:8 23:5 24:5 25:8 26:12 27:11 28:7 29:2 30:3 31:6 32:6 
1 1 1 0.957796734709773 1 1 0.968175332707416 1 1 3:4 4:8 5:7 6:6 7:6 8:7 9:12 10:12 11:6 12:6 13:6 14:8 15:4 20:2 21:2 22:7 23:11 24:11 25:8 26:6 27:6 28:6 29:11 30:11 31:8 32:3 
0.01660879742019201 0.01661207094711641 0.01782122999011147 0.01483329229055457 0.02290191766427114 0.0219766080449647 0.01498906095180921 0.01724137105446403 0.04895564154270218 2:2 3:4 4:8 5:6 6:6 7:6 8:6 9:6 10:6 11:6 12:7 13:7 14:8 15:4 22:8 23:11 24:11 25:8 26:5 27:4 28:6 29:11 30:11 31:7 
0.9149010447835896 0.9324319601686357 0.9795463116929616 0.8689961515535694 1 0.9850705131555003 0.8778723674678041 0.936697380826469 0.9267311755552359 4:4 5:8 6:6 7:6 8:6 9:6 10:6 11:6 12:6 13:6 14:6 15:10 16:10 17:5 20:3 21:3 22:7 23:13 24:13 25:7 26:4 27:4 28:6 29:12 30:12 31:7 
0.5682898860615923 0.5790645489376218 0.6122529801174197 0.5393670476621677 0.6298708727351218 0.5750392400460259 0.5468800469547422 0.5881790063193929 0.6809267109894603 3:7 4:9 5:7 6:7 7:6 8:6 9:6 10:7 11:7 12:6 13:6 14:8 15:4 20:4 21:7 22:11 23:12 24:7 25:4 26:4 27:6 28:12 29:12 30:7 
0.3403341182208524 0.3470915745717123 0.3568489860960163 0.3216953539877803 0.3657562736554479 0.3537336112258872 0.3292222648635908 0.3327409293593452 0.4410176387411927 5:4 6:8 7:8 8:7 9:6 10:6 11:6 12:6 13:6 14:6 15:6 16:8 17:4 22:7 23:11 24:11 25:7 26:5 27:5 28:6 29:11 30:11 31:7 
0.9363858698823437 0.9713022540377359 0.9966192247807544 0.8900188714213826 1 1 0.8994663535058249 0.9878394124303608 1 1:4 2:8 3:6 4:6 5:7 6:12 7:12 8:9 9:7 10:6 11:6 12:8 13:4 20:3 21:3 22:7 23:11 24:11 25:9 26:6 27:6 28:8 29:11 30:11 31:7 32:2 
0.4860545077877503 0.4962720241347201 0.52396291834576 0.4630147056051372 0.5328090396269161 0.5678720414218494 0.4667803410494496 0.476852474289151 0.4958330317241513 2:4 3:8 4:6 5:6 6:6 7:7 8:7 9:6 10:6 11:6 12:7 13:8 14:4 16:1 17:1 20:8 21:11 22:11 23:6 24:4 25:4 26:6 27:11 28:11 29:7 32:4 
0.396437409046167 0.4007113608060809 0.4174122430901279 0.3787276399860983 0.4296444328167628 0.4894562094640666 0.3814485223816153 0.3823095038899199 0.4183142499735237 6:4 7:8 8:6 9:6 10:6 11:6 12:6 13:6 14:6 15:7 16:6 17:8 18:4 20:7 21:11 22:11 23:7 24:4 25:4 26:6 27:11 28:11 29:7 
0.9169940253603516 0.9351188048311605 0.9768834113625536 0.8750250942886843 1 0.9890809522077704 0.880946420623815 0.9583858376337744 0.9604806140142854 1:4 2:8 3:6 4:6 5:6 6:6 7:6 8:6 9:6 10:7 11:12 12:12 13:5 14:1 20:7 21:11 22:11 23:7 24:5 25:5 26:6 27:11 28:11 29:9 30:2 31:2 32:4 
0.622574567002267 0.6344728183107637 0.6655224618440628 0.5917703939283914 0.7014115456541764 0.7092536751950141 0.5974072910489923 0.6840718447999467 0.6516506703024734 3:4 4:8 5:6 6:6 7:6 8:6 9:6 10:6 11:6 12:6 13:7 14:10 15:8 22:8 23:12 24:12 25:6 26:4 27:4 28:6 29:11 30:11 31:9 32:2 
0.7986817746413153 0.813398141659447 0.8564645506739412 0.7582101306815196 0.8973375735782557 0.8511202526059406 0.7666088599593528 0.8009736536563037 0.8571647968131833 2:11 3:11 4:6 5:6 6:6 7:6 8:6 9:6 10:6 11:6 12:6 13:8 14:4 20:2 21:2 22:9 23:12 24:12 25:6 26:4 27:4 28:6 29:12 30:12 31:7 
1 1 1 1 1 1 1 1 1 3:4 4:8 5:6 6:8 7:7 8:7 9:7 10:7 11:7 12:7 13:6 14:8 15:8 16:6 17:5 18:5 20:7 21:7 22:12 23:12 24:6 25:5 26:5 27:8 28:14 29:14 30:10 31:3 32:3 
1 1 1 1 1 1 1 1 1 6:4 7:8 8:6 9:5 10:5 11:5 12:5 13:5 14:5 15:6 16:6 17:8 18:4 20:11 21:11 22:6 23:4 24:4 25:7 26:11 27:11 28:7 
0.6413537477719091 0.6542755102869834 0.6868579082977062 0.6103088431841497 0.7072216274357323 0.759522773405739 0.6160480282358196 0.7233327229359984 0.7239966407708701 1:4 2:8 3:6 4:6 5:8 6:12 7:11 8:9 9:6 10:6 11:6 12:8 13:4 14:1 15:1 20:4 21:2 22:2 23:7 24:11 25:11 26:6 27:7 28:7 29:10 30:11 31:11 32:7 
0.2556231907532295 0.2687386780479854 0.2948947785925794 0.2416057633033401 0.2883245642866215 0.3743757974275102 0.2441763212687173 0.3615227140933776 0.3756884969829366 5:2 6:5 7:8 8:6 9:6 10:6 11:6 12:6 13:6 14:6 15:7 16:6 17:8 18:4 20:7 21:11 22:12 23:6 24:4 25:5 26:8 27:11 28:11 29:7 
0.4577920121053743 0.4661778197797079 0.4947319134708421 0.4380401866266181 0.503519001347297 0.5019147784503303 0.4399113013431525 0.4848579266595235 0.43755794099028 1:4 2:8 3:6 4:6 5:6 6:6 7:6 8:6 9:6 10:10 11:9 12:8 13:4 22:8 23:11 24:11 25:7 26:6 27:6 28:7 29:11 30:11 31:7 
0.4583272840937371 0.4706394142465148 0.5129053087315814 0.4363110133773957 0.5129354488060752 0.7897138891080103 0.4399496277121435 0.6167387348505179 0.6625567807376366 7:4 8:8 9:9 10:7 11:8 12:8 13:7 14:7 15:6 16:6 17:6 18:8 19:4 20:2 21:7 22:11 23:11 24:6 25:5 26:5 27:7 28:11 29:11 30:8 31:2 32:2 
1 1 1 1 1 1 1 1 1 4:2 5:7 6:11 7:12 8:6 9:5 10:5 11:5 12:5 13:5 14:5 15:5 16:6 17:8 18:4 20:2 21:2 22:2 23:2 24:7 25:11 26:13 27:7 28:5 29:5 30:7 31:14 32:14 
0.431086847364005 0.4396356451355624 0.4531283576605183 0.4128737143806442 0.4664800103441829 0.511909140727163 0.4136960923599271 0.4578954145141405 0.6881555352473325 3:4 4:8 5:6 6:6 7:6 8:6 9:6 10:9 11:9 12:6 13:6 14:8 15:4 21:7 22:11 23:11 24:8 25:6 26:6 27:6 28:11 29:11 30:7 
0.9280476065636797 0.9494086283035995 0.9974996166199935 0.889168169145545 1 1 0.8907824294361261 1 1 3:4 4:8 5:6 6:6 7:6 8:6 9:8 10:8 11:8 12:9 13:9 14:11 15:6 16:3 18:1 19:1 20:2 21:7 22:11 23:11 24:7 25:7 26:7 27:7 28:12 29:12 30:9 31:4 32:4 
0.8566063563602844 0.873216066567072 0.9227933338188229 0.8134881319599924 0.9458247288200324 0.9535627876245403 0.8219499564713578 0.9470758181926627 0.879246337871081 7:8 8:8 9:7 10:9 11:11 12:8 13:8 14:7 15:6 16:6 17:6 18:8 19:4 20:2 21:8 22:12 23:12 24:8 25:4 26:4 27:9 28:12 29:12 30:7 31:2 32:4 
0.2519888591019845 0.2568969743116332 0.2683057373549588 0.2401971608597647 0.2730507683011342 0.2852396667140592 0.2427068025532443 0.246046948059286 0.2982890658435018 5:4 6:8 7:7 8:6 9:6 10:6 11:6 12:6 13:7 14:7 15:6 16:8 17:4 21:7 22:11 23:11 24:8 25:4 26:4 27:6 28:11 29:11 30:8 
0.9360746763179482 0.9540895606271427 1 0.888978125355237 1 1 0.8984262527108549 0.9569649091820183 0.9630414649174909 7:4 8:9 9:7 10:6 11:8 12:12 13:12 14:6 15:6 16:6 17:6 18:8 19:4 21:7 22:11 23:11 24:8 25:6 26:6 27:8 28:11 29:11 30:7 31:3 32:5 
0.8051956188148546 0.8241259083396187 0.8540465797185838 0.7812639144385973 0.8777212158613692 0.8492364959573553 0.7733437490023963 0.7994423359966836 0.832070701876466 2:4 3:8 4:6 5:6 6:6 7:6 8:6 9:6 10:12 11:12 12:6 13:8 14:4 20:2 21:2 22:7 23:11 24:11 25:8 26:6 27:6 28:8 29:11 30:11 31:7 
0.8353648908259899 0.850873422809004 0.8903599634382712 0.7954328732508412 0.9206186403503949 0.959246887335005 0.8023066848670055 0.8871664228148689 0.8697377702189856 5:4 6:8 7:6 8:8 9:6 10:9 11:9 12:6 13:6 14:8 15:6 16:8 17:4 21:7 22:11 23:11 24:8 25:4 26:4 27:10 28:11 29:11 30:7 31:2 32:2 
0.134154164565358 0.1367652175975317 0.1463084554405763 0.1269562945631878 0.152563893673704 0.1561642165097166 0.1286122321000341 0.1137186298204182 0.150058776926812 6:5 7:9 8:6 9:6 10:6 11:6 12:6 13:6 14:6 15:7 16:7 17:8 18:4 20:7 21:11 22:11 23:6 24:4 25:4 26:6 27:11 28:11 29:7 32:4 
0.3259094095646538 0.3306500457436001 0.3304137713534903 0.3082108615689006 0.355696408635328 0.3878768612355783 0.3125850512296393 0.3307886822571639 0.2759931877042112 1:4 2:8 3:6 4:8 5:7 6:7 7:7 8:6 9:6 10:6 11:6 12:8 13:4 20:7 21:11 22:11 23:7 24:4 25:4 26:6 27:11 28:11 29:7 32:4 
0.7187376688117614 0.7321578345253701 0.7614788658838304 0.6823664319784253 0.7998756699113416 0.7621099717401487 0.6902392779459156 0.6984041691925632 0.7858150070652064 2:6 3:8 4:6 5:6 6:6 7:6 8:6 9:6 10:6 11:6 12:6 13:8 14:4 23:7 24:12 25:12 26:6 27:4 28:4 29:6 30:11 31:11 32:7 
0.8115353617248835 0.8271220592163512 0.8623669847114708 0.7720937333012179 0.89244806543672 0.9507748038326871 0.7792567597979346 0.8825705530669912 0.8632515972717947 5:4 6:8 7:6 8:9 9:9 10:6 11:6 12:6 13:6 14:8 15:9 16:8 17:4 21:8 22:11 23:11 24:9 25:8 26:7 27:6 28:11 29:11 30:7 
0.2418695032850326 0.2489873853370513 0.2677515415201832 0.2309839898513971 0.2795545394378143 0.3312426392020259 0.2322784799073549 0.268541602741606 0.3289329563132898 1:4 2:4 3:8 4:6 5:6 6:6 7:6 8:6 9:6 10:6 11:6 12:6 13:8 14:4 21:7 22:11 23:11 24:7 25:5 26:5 27:7 28:11 29:11 30:7 
0.84033685293812 0.8569424744242368 0.89984281472162 0.8157223667280839 0.9202688585646254 1 0.806525702904993 0.9533409859946158 0.9494737863531948 6:4 7:8 8:6 9:6 10:6 11:6 12:8 13:8 14:6 15:10 16:9 17:8 18:4 20:2 21:7 22:11 23:11 24:9 25:6 26:6 27:7 28:11 29:11 30:8 
0.8421938020603083 0.8579974588932902 0.8934767640626641 0.8003776524619167 0.917918623810127 0.8825504612401223 0.8087687406859102 0.8349066755618166 0.8603655194412438 4:4 5:8 6:6 7:6 8:6 9:6 10:6 11:6 12:6 13:6 14:7 15:9 16:5 18:13 19:13 20:4 21:2 22:9 23:13 24:13 25:8 26:6 27:6 28:8 29:13 30:13 31:10 32:2 
0.968302454638805 0.9884265719303613 1 0.9202172782885091 1 1 0.9301609525854006 1 0.9807150132114436 1:4 2:4 3:8 4:6 5:7 6:6 7:6 8:6 9:6 10:6 11:6 12:6 13:8 14:4 16:3 17:5 18:2 21:7 22:11 23:13 24:9 25:7 26:7 27:10 28:11 29:11 30:7 
0.2920757404421206 0.2971703618373081 0.3056814078495815 0.2795084289879937 0.3248306023943055 0.3665537984620596 0.2801428413980565 0.273670822801566 0.3035009013359793 6:4 7:8 8:6 9:6 10:6 11:7 12:7 13:6 14:9 15:9 16:6 17:8 18:4 20:2 22:7 23:11 24:11 25:8 26:6 27:4 28:8 29:11 30:11 31:7 
1 1 1 0.9529684460194539 1 1 0.9633668574010472 1 1 2:4 3:8 4:6 5:6 6:6 7:6 8:6 9:6 10:6 11:6 12:6 13:8 14:6 15:6 16:2 17:2 18:6 19:6 20:4 21:4 22:10 23:14 24:11 25:9 26:7 27:5 28:7 29:12 30:12 31:7 
0.4875212565093581 0.4975841967868386 0.5198033919692008 0.4637889896040345 0.5351940459462736 0.5319842743401334 0.4670679193824983 0.4887748488975275 0.4784708837059811 1:4 2:8 3:6 4:6 5:6 6:6 7:6 8:6 9:6 10:9 11:8 12:8 13:4 23:8 24:11 25:11 26:7 27:6 28:4 29:7 30:11 31:11 32:7 
0.06001524022323555 0.07911362800299053 0.1265778616065957 0.006217450423120976 0.1576157761577677 0.1225452878180592 0.01691523413954148 0.07066599053744421 0.0665306452746299 2:4 3:11 4:7 5:5 6:9 7:6 8:6 9:6 10:6 11:6 12:6 13:6 14:6 15:6 16:8 17:4 20:9 21:13 22:13 23:8 24:6 25:6 26:8 27:11 28:11 29:9 30:2 31:2 32:4 
0.4347027241786916 0.4438542904123935 0.473627225312881 0.4149393321246523 0.4808088894289784 0.5350074228444803 0.4175236749295666 0.4744995045232244 0.4370565586810444 3:2 4:2 5:1 6:4 7:8 8:6 9:6 10:6 11:6 12:6 13:6 14:6 15:7 16:7 17:8 18:4 22:7 23:11 24:11 25:6 26:4 27:4 28:8 29:11 30:11 31:10 32:2 
0.3102307594472736 0.314691192975964 0.3248883310571983 0.2933581803963237 0.3392301242549006 0.3434296157133777 0.2966540612347014 0.3017292465525551 0.2979300327719274 2:6 3:8 4:6 5:6 6:6 7:6 8:6 9:6 10:6 11:6 12:6 13:8 14:4 21:7 22:12 23:12 24:6 25:4 26:4 27:6 28:11 29:11 30:7 
0.6054159335412432 0.6161296991945702 0.6450204833111481 0.5747518597184965 0.6695383959237684 0.6644129835727499 0.5807991936094222 0.6961858398369507 0.6184846239991894 4:4 5:9 6:8 7:7 8:8 9:7 10:6 11:6 12:6 13:6 14:6 15:6 16:8 17:4 20:3 23:7 24:12 25:12 26:7 27:4 28:4 29:7 30:13 31:13 32:9 
0.5467781950797234 0.5568775754536791 0.5901443217226803 0.5164512146805703 0.6028271667577418 0.6241089780357249 0.5240927772434145 0.5764030936560228 0.5497086162141655 1:4 2:8 3:6 4:6 5:6 6:6 7:6 8:6 9:6 10:6 11:11 12:11 13:4 21:7 22:11 23:11 24:6 25:5 26:5 27:6 28:11 29:11 30:9 31:2 32:2 
0.995714955790142 1 1 0.9460770806581378 1 1 0.9565210259664948 1 1 3:7 4:9 5:6 6:8 7:6 8:6 9:7 10:7 11:7 12:7 13:6 14:8 15:6 20:9 21:12 22:12 23:7 24:4 25:4 26:7 27:12 28:12 29:7 32:4 
0.6673215513082732 0.6891102148235631 0.7119773065366836 0.6352900360071212 0.7307423915432142 0.7462272711362585 0.6400753773812091 0.7151226488993441 1 6:2 7:4 8:8 9:7 10:6 11:6 12:6 13:6 14:9 15:9 16:6 17:6 18:8 19:4 22:8 23:11 24:11 25:8 26:5 27:7 28:8 29:11 30:11 31:7 
0.4840911032247579 0.4945705183171176 0.5195497548884192 0.4604841954877115 0.5300185648430722 0.5309021816642705 0.4656970660845708 0.5006366736038153 0.5639823053149494 7:4 8:8 9:9 10:7 11:7 12:6 13:6 14:6 15:6 16:6 17:6 18:8 19:4 20:2 22:8 23:11 24:11 25:6 26:5 27:5 28:6 29:11 30:11 31:7 
0.821244486422884 0.8398017654352451 0.8747565311657937 0.7803876312658042 0.9017384856524622 0.9124598183546585 0.7891848181560478 0.9065761385962882 0.9575894436659654 5:4 6:8 7:9 8:10 9:8 10:6 11:6 12:6 13:6 14:6 15:6 16:8 17:4 20:8 21:11 22:11 23:7 24:7 25:7 26:7 27:11 28:11 29:7 
1 1 1 0.9741520531435759 1 1 0.9822403510433868 1 1 1:4 2:8 3:6 4:6 5:6 6:6 7:6 8:6 9:11 10:12 11:7 12:9 13:5 14:1 15:1 20:7 21:2 22:2 23:7 24:11 25:11 26:8 27:6 28:4 29:7 30:11 31:11 32:7 
0.6264541039442154 0.6380527096194553 0.6597492092527885 0.5939305446458634 0.6838061750607088 0.6921640150118975 0.6013502902959801 0.6581521506493511 0.6234742328442861 3:2 4:2 7:4 8:8 9:6 10:6 11:6 12:6 13:6 14:6 15:6 16:6 17:6 18:8 19:4 21:7 22:11 23:13 24:8 25:4 26:4 27:6 28:11 29:11 30:7 
0.05107606508344206 0.05014807735112408 0.06989802921011257 0.04787861813676488 0.06413355040887554 0.02624089557995747 0.04858704444455119 0.02872049960107833 0.01728716540853462 1:6 2:8 3:6 4:6 5:6 6:6 7:6 8:6 9:6 10:6 11:6 12:8 13:4 14:1 15:1 16:1 20:7 21:11 22:11 23:6 24:4 25:4 26:6 27:12 28:12 29:7 32:3 
0 0 0 0 0 0 0 0 0.002287779127390403 2:4 3:8 4:6 5:6 6:6 7:6 8:6 9:6 10:6 11:6 12:6 13:8 14:6 17:1 18:1 20:2 21:7 22:11 23:11 24:6 25:4 26:4 27:6 28:12 29:12 30:7 
1 1 1 0.9879560406625678 1 1 0.9981942926997726 1 1 4:6 5:10 6:9 7:10 8:9 9:10 10:7 11:6 12:6 13:6 14:6 15:9 16:5 20:8 21:11 22:11 23:6 24:8 25:7 26:8 27:10 28:12 29:11 30:5 32:2 
0.7615876515790824 0.7761929867981608 0.8249826500437281 0.7241329818260111 0.8361315387295758 0.8302763207267002 0.7310750378971554 0.789481572020864 0.804283999141258 3:4 4:4 5:8 6:10 7:6 8:6 9:6 10:6 11:6 12:6 13:6 14:7 15:8 16:4 17:3 18:3 20:9 21:11 22:11 23:7 24:6 25:6 26:9 27:13 28:13 29:8 
0.6872852858169385 0.7002866727772562 0.7348997061204574 0.6556291344487213 0.7511555289433021 0.7396330976330594 0.6612734384403993 0.6921193088830805 0.7437856103044879 4:4 5:8 6:12 7:13 8:8 9:6 10:6 11:6 12:6 13:6 14:6 15:8 16:4 20:2 21:8 22:11 23:11 24:7 25:6 26:6 27:7 28:11 29:11 30:8 31:3 32:2 
0.09825521908530287 0.09930032417581064 0.1044504348773262 0.09663923996680121 0.1006293776739429 0 0.09515343473303124 0.07016363102602835 0.05327241371562651 1:4 2:8 3:6 4:7 5:6 6:6 7:6 8:6 9:6 10:6 11:7 12:8 13:4 20:7 21:11 22:11 23:6 24:4 25:4 26:7 27:11 28:11 29:8 
0.5070409845140531 0.5174553740008764 0.5590414387290602 0.48089163831437 0.5760254313593579 0.5952429848355209 0.4886387269976392 0.5189382554200518 0.5645647989989808 4:6 5:10 6:6 7:6 8:6 9:6 10:6 11:6 12:6 13:6 14:6 15:8 16:4 20:2 21:2 22:7 23:11 24:11 25:6 26:4 27:4 28:6 29:11 30:11 31:7 
0.175164249926185 0.1827795450444819 0.1885489549836249 0.1674972334666708 0.1949787804641533 0.2368173747353078 0.1682221207148443 0.1393849139264966 0.1704313543122259 7:4 8:8 9:6 10:6 11:6 12:6 13:6 14:6 15:6 16:6 17:6 18:8 19:4 21:7 22:11 23:11 24:6 25:4 26:4 27:6 28:11 29:11 30:7 
0.6796235721736406 0.6920846188395153 0.7628974289799774 0.6477982450641701 0.7453742887544552 0.7222754086601642 0.653315233726661 0.9301820781353078 0.7455042935374375 5:8 6:12 7:11 8:6 9:6 10:6 11:7 12:7 13:6 14:6 15:7 16:7 17:8 18:4 20:2 21:2 22:9 23:12 24:11 25:7 26:6 27:5 28:8 29:13 30:13 31:9 32:4 
0.6570138558452731 0.6703407409262643 0.7057721694250314 0.6433008212487615 0.719975494089605 0.7221363082648918 0.6330115638407033 0.7722277495073096 0.6627985584453051 1:4 2:8 3:6 4:6 5:6 6:6 7:6 8:6 9:6 10:10 11:11 12:10 13:4 21:7 22:11 23:11 24:7 25:6 26:6 27:7 28:11 29:11 30:8 31:2 32:2 
0.07776842917162365 0.07940179256749781 0.08098969486369619 0.07321375937143278 0.08962419411237212 0.1523618439878301 0.07415530674059295 0.09416217315967977 0.06105273004568056 2:2 3:2 6:4 7:8 8:6 9:6 10:6 11:6 12:6 13:6 14:6 15:6 16:6 17:8 18:4 22:7 23:11 24:13 25:8 26:4 27:4 28:6 29:11 30:11 31:7 
0.7974199611541295 0.8143384024240389 0.8558094849169198 0.7601736655774493 0.8748045823157186 0.9091971475340707 0.7661611931722586 0.8662259942142243 1 1:4 2:8 3:6 4:6 5:6 6:6 7:7 8:11 9:10 10:6 11:6 12:8 13:4 22:7 23:11 24:11 25:8 26:6 27:6 28:8 29:11 30:11 31:7 32:2 
0.3462868420514138 0.3537648444097751 0.3644164240452105 0.3269611886779468 0.3792584728598317 0.3586839336325833 0.3316067299388105 0.3867610473374245 0.3657908042631451 4:6 5:8 6:10 7:13 8:8 9:6 10:6 11:6 12:6 13:6 14:6 15:8 16:4 20:2 21:8 22:12 23:12 24:7 25:6 26:6 27:7 28:11 29:11 30:7 31:2 32:2 
0.9594760695391806 0.9773501400169111 1 0.9115583195063196 1 1 0.9216705840095507 0.991691709371569 0.9934889283531888 6:4 7:8 8:6 9:6 10:12 11:12 12:6 13:7 14:7 15:6 16:6 17:8 18:4 20:4 21:2 22:7 23:11 24:11 25:8 26:6 27:6 28:8 29:11 30:11 31:7 
0.802270060011818 0.8176349209198272 0.8524353318328963 0.7630882852837173 0.8764365623935743 0.8522632354311259 0.7702988229158077 0.8593059032836783 0.9138122277908999 6:5 7:9 8:9 9:7 10:6 11:6 12:7 13:7 14:7 15:7 16:9 17:8 18:4 20:8 21:11 22:11 23:7 24:5 25:6 26:6 27:11 28:11 29:8 32:7 
0.8439883057730787 0.8601183034108844 0.8992094898031395 0.8019229119860288 0.9222664623310122 0.8982711628322067 0.810009201815985 0.8416100638938977 0.9276418330378154 2:4 3:8 4:8 5:7 6:6 7:6 8:6 9:6 10:7 11:7 12:8 13:9 14:5 20:5 23:8 24:11 25:11 26:6 27:5 28:5 29:7 30:11 31:11 32:7 
0.9991228759357929 1 0.9989741396046103 1 0.9992540075506426 1 1 1 1 2:4 3:11 4:7 5:5 6:9 7:6 8:6 9:6 10:6 11:6 12:6 13:6 14:6 15:6 16:8 17:4 20:9 21:13 22:13 23:8 24:6 25:6 26:8 27:11 28:11 29:9 30:2 31:2 32:4 
0.5818624339528891 0.5930276833340287 0.6215113896293418 0.5530363365938379 0.6338627227916188 0.7470631085677411 0.5591226753207479 0.6227461177756871 0.6000060150719231 2:6 3:8 4:6 5:6 6:6 7:6 8:6 9:6 10:6 11:6 12:6 13:8 14:4 20:7 21:12 22:12 23:6 24:4 25:4 26:6 27:11 28:11 29:7 
0.8990310995080134 0.9157839698007397 0.9534875430737102 0.8538305661336471 0.9803604290709389 0.9401264866315983 0.8630327143719209 0.8903589367421823 0.9007354761374787 1:12 2:12 7:4 8:8 9:6 10:6 11:6 12:6 13:6 14:6 15:6 16:6 17:6 18:8 19:4 20:2 21:2 22:9 23:13 24:13 25:8 26:6 27:6 28:8 29:13 30:13 31:9 
0.7684349796845407 0.783326037448792 0.8241370174734185 0.7294180124219686 0.8418530844453618 0.864434438401513 0.7375807340038888 0.8902312781183136 0.7736719494223593 3:2 4:7 5:9 6:6 7:6 8:6 9:6 10:6 11:6 12:6 13:8 14:6 15:8 16:8 17:2 20:7 21:12 22:13 23:8 24:5 25:5 26:7 27:13 28:13 29:9 
0.5429903642344798 0.5521758167020652 0.5743257299579563 0.5148876842241075 0.5946221717339255 0.5774786644704226 0.5208473230251005 0.5542877842028667 0.5642620332976042 3:1 4:1 5:5 6:8 7:6 8:6 9:7 10:7 11:7 12:6 13:6 14:6 15:7 16:8 17:5 20:7 21:11 22:12 23:6 24:5 25:4 26:6 27:11 28:11 29:7 32:6 
0.3339825604294172 0.341793366338091 0.3555306809792308 0.3273143403195723 0.3637412623386751 0.376486182852793 0.3208384868285586 0.3597347878837401 0.3352961946010301 2:4 3:8 4:6 5:6 6:6 7:6 8:6 9:6 10:9 11:11 12:8 13:8 14:4 22:7 23:11 24:11 25:7 26:6 27:6 28:8 29:11 30:11 31:8 32:2 
1 1 1 1 1 1 1 1 1 1:4 2:8 3:6 4:5 5:5 6:6 7:7 8:7 9:5 10:6 11:7 12:8 13:6 16:2 17:2 18:1 20:11 21:11 22:6 23:5 24:4 25:7 26:12 27:12 28:7 31:4 32:6 
0.7933117874316229 0.8096406477349631 0.8510979726839116 0.7544500535758112 0.8734544517093362 0.8583797792360729 0.7623964887897144 0.8294134481281669 0.9963818392174465 6:4 7:8 8:7 9:8 10:7 11:6 12:6 13:8 14:8 15:6 16:6 17:8 18:4 20:2 23:8 24:11 25:11 26:7 27:4 28:6 29:8 30:11 31:11 32:7 
0.105503134099766 0.105398675773645 0.1033177621398038 0.09796094862998797 0.1057464555985073 0.09460940152502291 0.1008924392722993 0.07863838182352835 0.1060780528000581 2:4 3:8 4:6 5:6 6:6 7:6 8:6 9:6 10:6 11:6 12:7 13:8 14:4 22:8 23:11 24:11 25:6 26:4 27:4 28:6 29:11 30:11 31:7 
0.3554643358749072 0.3628704462639281 0.3750849399367913 0.3356896565939914 0.3943131187318065 0.367171453170802 0.3407700562353623 0.3520041294644871 0.3488454709905019 3:4 4:8 5:6 6:6 7:6 8:6 9:6 10:6 11:6 12:6 13:9 14:8 15:7 21:8 22:12 23:12 24:6 25:5 26:5 27:6 28:12 29:11 30:7 
0.8959236210250302 0.91303935395165 0.9642905511826556 0.8511083257818994 0.9850548130480248 0.966675648075282 0.8602393073580975 0.9161622217484371 0.9158444038409966 6:4 7:8 8:6 9:6 10:6 11:6 12:6 13:6 14:6 15:7 16:6 17:11 18:11 22:9 23:12 24:12 25:6 26:4 27:4 28:7 29:12 30:12 31:9 32:2 
0.3415240273358577 0.3474415332604044 0.3757394795283337 0.3285932028479412 0.369339459940949 0.4018819185028467 0.3297260232357628 0.358172358330569 0.3673382780878598 2:4 3:8 4:9 5:6 6:6 7:6 8:6 9:6 10:6 11:6 12:6 13:8 14:4 21:7 22:11 23:11 24:6 25:5 26:5 27:6 28:11 29:11 30:8 
0.9012939395918589 0.9185746551263158 0.9614720047391666 0.8568221309929096 0.9908885831244702 0.9481150595501329 0.8653185492172015 0.9054088856197494 0.9127889105749156 1:4 2:7 3:5 4:9 5:6 6:6 7:6 8:6 9:6 10:6 11:6 12:6 13:6 14:8 15:6 20:2 22:7 23:12 24:12 25:7 26:5 27:5 28:8 29:13 30:13 31:9 
0.08489353747229052 0.08609964510360983 0.09464983875635033 0.08307916957752133 0.09337188828362054 0.1546185283813283 0.08068302969120332 0.104569939132391 0.171403787811845 3:4 4:8 5:7 6:6 7:6 8:6 9:6 10:6 11:7 12:8 13:6 14:8 15:5 16:1 20:2 21:8 22:11 23:11 24:6 25:4 26:4 27:7 28:11 29:11 30:7 31:2 
0.5196599382972453 0.530731696097079 0.5525322244901696 0.492789288173208 0.5665554962367679 0.5410181512207117 0.4981760499407461 0.6332278347956631 0.5713199352469289 1:4 2:8 3:7 4:9 5:6 6:6 7:6 8:6 9:6 10:6 11:7 12:8 13:6 15:1 16:1 20:2 23:7 24:12 25:12 26:7 27:4 28:6 29:7 30:11 31:11 32:8 
0.5434803197946715 0.5556765480932664 0.5871012118119445 0.5172508856587091 0.6007329781068398 0.6376391907550816 0.5219473728153545 0.5546504640222324 0.5649983543170172 3:1 4:5 5:8 6:6 7:6 8:6 9:6 10:6 11:6 12:7 13:7 14:7 15:8 16:6 17:3 20:7 21:11 22:11 23:7 24:5 25:5 26:6 27:12 28:12 29:7 32:5 
0.8462499567147924 0.8617018892877977 0.8970789914852936 0.803727170573146 0.9263601283036527 0.9259138148674383 0.812666434839007 0.8970519519044971 0.8901488333603267 2:4 3:8 4:6 5:11 6:10 7:7 8:7 9:6 10:6 11:7 12:7 13:8 14:4 22:7 23:11 24:11 25:9 26:6 27:6 28:9 29:11 30:11 31:8 32:2 
0.5040480829695109 0.5219730482716486 0.5459704118364626 0.4818368428520907 0.5684619487758679 0.6243139512430805 0.4840240063299383 0.592092427939208 0.6290825660259866 3:4 4:8 5:6 6:6 7:6 8:6 9:6 10:6 11:8 12:8 13:7 14:8 15:6 16:3 22:7 23:11 24:11 25:6 26:6 27:7 28:9 29:12 30:12 31:7 
0.2918304965677236 0.2954764417965903 0.315977018656287 0.2767432724281508 0.318351042974554 0.2249235892237507 0.2805225407649074 0.3007853638782622 0.3311794683936303 7:5 8:8 9:7 10:6 11:6 12:6 13:6 14:6 15:6 16:6 17:6 18:8 19:4 21:8 22:11 23:11 24:6 25:4 26:4 27:6 28:12 29:11 30:7 
0.3489951957360299 0.3544484267213656 0.3683155304147521 0.3305076519986482 0.3864417369665241 0.3464833235016993 0.3352004699988539 0.3446931968282949 0.3613577078136336 3:6 4:8 5:6 6:8 7:6 8:6 9:6 10:6 11:6 12:6 13:6 14:8 15:4 22:7 23:12 24:12 25:7 26:4 27:4 28:7 29:11 30:11 31:7 
0.1593582762538936 0.1602145176091489 0.1818527313039109 0.1515441280037976 0.1863955207535039 0.1997493597844901 0.1534789446938943 0.1592867225344219 0.159289486750138 7:6 8:8 9:6 10:7 11:6 12:6 13:6 14:6 15:6 16:6 17:6 18:8 19:4 22:7 23:11 24:11 25:7 26:4 27:4 28:6 29:12 30:12 31:7 
0.6495471451047762 0.662304373890696 0.700674107717311 0.6172607096745523 0.7161583781081362 0.6776471795422966 0.6233599071447713 0.6578598845882727 0.6471952984478713 4:6 5:8 6:6 7:8 8:6 9:6 10:6 11:6 12:6 13:6 14:6 15:8 16:4 17:3 18:3 22:7 23:11 24:11 25:7 26:4 27:6 28:9 29:14 30:12 31:7 
1 1 1 0.9716015408284593 1 1 0.9813454022772717 1 1 6:1 7:5 8:9 9:7 10:7 11:7 12:6 13:6 14:10 15:10 16:6 17:6 18:8 19:4 20:6 23:7 24:11 25:11 26:8 27:6 28:6 29:8 30:11 31:11 32:7 
0.9298973939876774 0.9483384247628631 1 0.8895291260559421 1 0.9992022958417519 0.8935672424224787 0.9440203349050634 0.9793904160383757 5:7 6:10 7:11 8:6 9:6 10:6 11:6 12:6 13:6 14:7 15:8 16:6 17:8 18:4 20:4 21:2 22:2 23:7 24:11 25:11 26:8 27:5 28:5 29:7 30:13 31:13 32:9 
0.282254024965162 0.2881922492365897 0.3055099925289269 0.2682222063419792 0.3036057566711577 0.3243869381772426 0.2716469465302475 0.2906008372978161 0.3565741688884788 3:4 4:8 5:9 6:6 7:6 8:6 9:6 10:6 11:6 12:6 13:6 14:8 15:4 22:7 23:11 24:11 25:6 26:5 27:5 28:6 29:11 30:11 31:8 
1 1 1 0.9990057439556843 1 1 1 1 1 2:4 3:8 4:6 5:6 6:6 7:6 8:6 9:6 10:6 11:6 12:6 13:8 14:6 17:5 18:11 19:8 20:2 21:2 22:9 23:14 24:14 25:8 26:4 27:4 28:8 29:13 30:13 31:10 32:3 
1 1 1 1 1 1 1 1 1 6:4 7:8 8:7 9:13 10:13 11:9 12:6 13:6 14:6 15:6 16:6 17:8 18:4 20:3 21:7 22:11 23:11 24:9 25:7 26:7 27:8 28:11 29:11 30:7 31:2 32:2 
0.7596168020876426 0.7737610918621973 0.8124214621762462 0.721408139954805 0.831707544405183 0.8044915802097676 0.729351840667244 0.7654681000722827 0.7900446892374042 2:4 3:8 4:6 5:6 6:6 7:6 8:6 9:6 10:6 11:6 12:6 13:10 14:10 20:2 21:9 22:12 23:12 24:6 25:4 26:4 27:6 28:12 29:12 30:7 
1 1 1 0.954916135297169 1 1 0.9657584404264707 1 1 2:4 3:8 4:6 5:6 6:6 7:6 8:6 9:6 10:6 11:6 12:6 13:8 14:6 15:6 16:6 17:7 18:7 19:5 20:2 21:2 22:9 23:13 24:13 25:8 26:6 27:6 28:9 29:15 30:15 31:10 32:3 
0.2079649782890735 0.2143459269767867 0.2416543755081919 0.1986750480194687 0.2526752141297499 0.2276178937406335 0.1997163815080129 0.244128968275361 0.2422418870483938 5:4 6:8 7:7 8:6 9:6 10:6 11:6 12:6 13:6 14:6 15:6 16:8 17:6 18:2 22:7 23:11 24:11 25:7 26:6 27:4 28:6 29:12 30:12 31:7 
1 1 1 1 1 1 1 1 1 2:8 3:8 5:4 6:8 7:6 8:8 9:6 10:6 11:6 12:6 13:6 14:7 15:8 16:8 17:4 20:2 21:2 22:9 23:13 24:13 25:9 26:7 27:7 28:8 29:11 30:11 31:7 
1 1 1 0.9688238425196026 1 1 0.9744431803408856 1 1 7:4 8:8 9:6 10:8 11:6 12:6 13:13 14:13 15:6 16:6 17:6 18:8 19:4 20:2 21:7 22:11 23:11 24:9 25:6 26:6 27:9 28:11 29:11 30:7 31:2 32:2 
0.8835774016564963 0.9026924357910477 0.9410403130460747 0.842474799030551 0.9736568368037104 1 0.8480510809402114 1 1 4:1 5:5 6:8 7:6 8:6 9:6 10:6 11:6 12:8 13:8 14:8 15:12 16:10 17:4 20:8 21:11 22:11 23:8 24:7 25:6 26:7 27:11 28:11 29:8 30:2 31:2 32:2 
0.7441094739010022 0.7580100648385445 0.8147084937542206 0.7211187282293885 0.8224056737090159 0.9550265567722223 0.7145612688860554 0.8875842265130501 0.8930735020215754 6:4 7:8 8:6 9:6 10:7 11:7 12:6 13:8 14:10 15:10 16:9 17:8 18:4 20:2 21:4 22:8 23:11 24:11 25:7 26:6 27:7 28:8 29:11 30:11 31:7 
0.2211345705217413 0.2269029228014587 0.2491206991662024 0.2091039480595794 0.244411015928087 0.2308228654205199 0.2133814385954883 0.2825543629793003 0.3076449538540849 1:4 2:8 3:8 4:7 5:6 6:6 7:6 8:6 9:6 10:6 11:6 12:8 13:6 22:7 23:11 24:11 25:7 26:5 27:5 28:6 29:12 30:12 31:7 
0.1480450938588115 0.1552207280218974 0.1652436493158234 0.1400966591366377 0.1747396449296388 0.1664464094802846 0.1422214921238172 0.143890328883498 0.1643638964749644 1:1 2:4 3:4 4:8 5:6 6:6 7:6 8:6 9:6 10:6 11:6 12:6 13:7 14:8 15:4 21:8 22:11 23:11 24:7 25:5 26:5 27:8 28:11 29:11 30:7 
0.7175815401230337 0.7321087494837334 0.7613631810169792 0.6830391355228392 0.7977129667303061 0.7808087995831714 0.6899211334421882 0.6931726585599497 0.7154863330800804 1:1 2:1 4:3 5:9 6:8 7:7 8:10 9:8 10:7 11:6 12:6 13:6 14:6 15:6 16:8 17:4 20:6 21:2 23:7 24:12 25:12 26:7 27:4 28:4 29:7 30:13 31:13 32:9 
0.07862250478781917 0.08044743641384471 0.0761643033637377 0.07362078027449512 0.07461513061212209 0.1736739774758527 0.07541323890544922 0.04085311712219347 0.09020355882023233 1:4 2:8 3:6 4:6 5:6 6:6 7:6 8:6 9:6 10:6 11:6 12:8 13:4 21:7 22:11 23:11 24:6 25:4 26:4 27:6 28:11 29:11 30:7 
0.7208918291142505 0.7341933131057944 0.769962347951054 0.6845380293761645 0.7854110627905742 0.7408330647587318 0.6922037439844874 0.6978638171593489 0.7090194650753595 1:4 2:8 3:6 4:6 5:6 6:13 7:13 8:9 9:6 10:6 11:6 12:8 13:4 14:1 15:1 20:5 21:3 22:3 23:7 24:11 25:11 26:8 27:6 28:6 29:8 30:11 31:11 32:7 
0.6217364058454541 0.633271888042939 0.6683126121725 0.590482436627728 0.6883163869006466 0.6417200798866387 0.5976121323956839 0.6421880422431417 0.7260635201813686 6:4 7:11 8:9 9:7 10:7 11:6 12:6 13:6 14:6 15:6 16:6 17:8 18:4 20:2 21:2 22:9 23:11 24:11 25:8 26:4 27:4 28:6 29:11 30:11 31:7 
0.304657422758074 0.3104434283654271 0.3292870299395594 0.2898628865487576 0.3362669883289643 0.3471845804877828 0.2929057378835072 0.3362941073924262 0.3383717898494742 4:4 5:8 6:8 7:7 8:6 9:6 10:6 11:6 12:6 13:6 14:8 15:8 16:4 22:8 23:11 24:11 25:6 26:6 27:5 28:7 29:11 30:11 31:7 
0.5809486018823639 0.5919855738154427 0.6225453681013512 0.5525548657375993 0.6490890926526906 0.8041625504918781 0.5599600300839559 0.6548305803278566 0.7017167579375228 3:4 4:8 5:6 6:6 7:6 8:8 9:10 10:8 11:6 12:6 13:6 14:8 15:4 21:7 22:11 23:11 24:8 25:6 26:4 27:6 28:11 29:11 30:7 31:2 32:2 
0.1936335564285955 0.1972099901850437 0.2304560275268548 0.1818408352649708 0.2176988654062363 0.245589206381939 0.1869656053324058 0.2364565877347389 0.4246473881774755 6:4 7:8 8:6 9:6 10:6 11:6 12:8 13:8 14:6 15:6 16:8 17:8 18:4 20:2 21:2 22:7 23:11 24:11 25:6 26:5 27:5 28:6 29:11 30:11 31:7 
0.1964189819259135 0.1993036331952157 0.2161016617844297 0.1846863385097718 0.2260099902040321 0.2005106822467893 0.187845280429301 0.203963715058137 0.2816316677156426 2:1 3:1 5:4 6:8 7:6 8:6 9:6 10:6 11:6 12:6 13:6 14:6 15:6 16:8 17:4 20:7 21:11 22:11 23:6 24:4 25:4 26:6 27:11 28:11 29:7 32:2 
0.7849250988730394 0.8006024278021099 0.8482734845770448 0.7455267830429093 0.8742042689846101 0.9223377230971519 0.75435751032414 0.9169377990184082 0.8710584753004979 5:7 6:10 7:9 8:7 9:7 10:6 11:6 12:6 13:6 14:6 15:6 16:8 17:4 18:4 19:2 20:2 21:9 22:12 23:12 24:8 25:7 26:6 27:7 28:11 29:11 30:7 32:2 
0 0 0.007685371263469425 0 0 0.07057633490826676 0 0 0.1158086727454292 1:4 2:8 3:6 4:6 5:6 6:6 7:6 8:6 9:6 10:6 11:6 12:8 13:4 20:7 21:11 22:11 23:6 24:4 25:4 26:6 27:11 28:11 29:7 
1 1 1 1 1 1 1 1 1 1:4 2:8 3:9 4:9 5:7 6:5 7:5 8:6 9:7 10:7 11:8 12:10 13:5 14:1 20:9 21:6 24:7 25:11 26:11 27:6 28:5 29:6 30:8 31:11 32:11 
0.6909014947800256 0.7041408385463641 0.7499252745731038 0.6567916808205958 0.7835427961854562 0.7259558684969991 0.663888638524753 0.7432811374263552 0.7772891222068354 1:6 2:8 3:6 4:6 5:6 6:6 7:6 8:6 9:6 10:6 11:6 12:8 13:4 21:7 22:11 23:11 24:6 25:4 26:4 27:6 28:12 29:12 30:7 
0.7120769702254191 0.7285349472456287 0.7570902264404158 0.6767895680722807 0.7788545669292871 0.7571761147729853 0.684379556295422 0.7214128734445551 0.7592554156607049 7:5 8:9 9:8 10:6 11:6 12:6 13:7 14:7 15:7 16:6 17:6 18:8 19:4 20:7 21:11 22:11 23:6 24:4 25:5 26:6 27:11 28:11 29:7 32:6 
0.125933200625727 0.1291858374804547 0.1411184178994898 0.1209535243883425 0.1365663689677423 0.1392528290208293 0.1208100617841586 0.1654430476448588 0.2469313892927974 1:4 2:8 3:6 4:6 5:6 6:6 7:7 8:7 9:6 10:7 11:6 12:8 13:6 16:1 17:1 20:7 21:11 22:11 23:6 24:4 25:4 26:7 27:12 28:12 29:7 32:4 
1 1 1 0.9978030591449139 1 1 1 1 1 4:7 5:10 6:3 7:7 8:9 9:7 10:6 11:6 12:6 13:6 14:6 15:6 16:6 17:6 18:8 19:4 22:10 23:14 24:14 25:6 26:6 27:6 28:8 29:13 30:13 31:11 32:2 
0.5288342561723521 0.5388248954764719 0.571225801017568 0.5031089351888902 0.6169583632219219 0.5571989345605288 0.5072971841251073 0.4598380433363351 0.5962047355329552 5:8 6:11 7:11 8:6 9:6 10:6 11:6 12:6 13:6 14:6 15:6 16:6 17:8 18:4 20:2 21:2 22:9 23:11 24:11 25:7 26:5 27:5 28:7 29:13 30:13 31:9 32:2 
0.8225633540774578 0.8384482027186705 0.8752793600006298 0.7805808918760591 0.8986439861986615 0.8701107202489158 0.7893602486414203 0.815937617472996 0.8245796814815338 4:4 5:8 6:6 7:6 8:6 9:6 10:6 11:6 12:6 13:6 14:9 15:8 16:6 17:4 18:13 19:11 20:2 21:2 22:10 23:14 24:14 25:8 26:7 27:7 28:8 29:14 30:13 31:9 32:3 
0.1712330167134223 0.1756214448270216 0.1905625194886759 0.1635428096158126 0.194617075312753 0.2174657429006021 0.1640201144431513 0.1700091477051478 0.2053564051039705 2:4 3:8 4:6 5:6 6:6 7:6 8:6 9:6 10:6 11:6 12:6 13:8 14:6 15:1 16:1 22:7 23:11 24:11 25:6 26:4 27:4 28:6 29:12 30:12 31:7 32:2 
0.6257548023410763 0.6384532989844172 0.6664991937854673 0.5952871949086872 0.6817481327005127 0.6897044722622903 0.6014521372159709 0.6472638460751253 0.7585348446255802 1:4 2:8 3:6 4:6 5:6 6:6 7:6 8:7 9:7 10:7 11:6 12:8 13:4 14:4 15:1 16:1 20:7 21:11 22:11 23:6 24:5 25:5 26:7 27:11 28:11 29:7 32:6 
0.5818771098027517 0.5925583082211656 0.6215743161355825 0.5555726221423296 0.6303922057992144 0.6724635286392332 0.5586269843274061 0.6348684283919047 0.6620821909175493 4:4 5:8 6:6 7:6 8:6 9:6 10:8 11:8 12:7 13:9 14:7 15:8 16:4 21:2 22:7 23:11 24:11 25:7 26:4 27:6 28:9 29:11 30:11 31:8 
0.1221967177075729 0.12603488816595 0.111004777601109 0.112741531175207 0.1330893991339702 0.1025965532173813 0.1175528503799568 0.07889021834028201 0.06844462757070244 1:4 2:8 3:6 4:6 5:6 6:6 7:6 8:6 9:6 10:6 11:6 12:8 13:5 20:7 21:11 22:12 23:6 24:4 25:4 26:6 27:11 28:11 29:7 
0.4804479822507947 0.4905348002010423 0.5228806364119399 0.4563351986985879 0.5526703288319508 0.5930111804129914 0.462225021745755 0.5248382594572276 0.5712004853586226 2:4 3:8 4:6 5:6 6:6 7:6 8:6 9:6 10:6 11:6 12:7 13:8 14:4 15:5 16:1 17:1 22:8 23:11 24:11 25:7 26:5 27:5 28:7 29:11 30:11 31:7 32:3 
0.5310354212800738 0.5427198025088535 0.559982929999958 0.5044574973606424 0.5813305540443716 0.5887826112049832 0.5096210599548563 0.5259275221517044 0.5322524092031032 7:4 8:8 9:6 10:6 11:6 12:6 13:6 14:6 15:6 16:6 17:6 18:8 19:6 22:7 23:12 24:12 25:6 26:4 27:4 28:6 29:11 30:11 31:7 
0.5069692428458364 0.5177711275002516 0.5473280502303224 0.4821050411296606 0.566900953038463 0.6846584550019519 0.4873724782566876 0.6317549286300185 0.663666528430093 2:4 3:8 4:6 5:6 6:6 7:6 8:8 9:8 10:6 11:6 12:6 13:8 14:6 15:3 21:7 22:12 23:12 24:6 25:5 26:7 27:9 28:11 29:11 30:7 
0.6201656973677412 0.631905394758708 0.6676168821125263 0.5945508266380389 0.6788826709624134 0.6997559753910096 0.5961750185531232 0.6682044123905226 0.6281807689203862 1:4 2:8 3:6 4:6 5:6 6:6 7:6 8:6 9:8 10:8 11:10 12:10 13:4 20:2 21:2 22:7 23:11 24:11 25:6 26:5 27:5 28:6 29:11 30:11 31:9 32:2 
1 1 1 1 1 1 1 1 1 1:6 2:8 3:6 4:6 5:6 6:6 7:6 8:6 9:6 10:6 11:9 12:8 13:4 15:5 16:8 17:7 20:2 22:8 23:12 24:12 25:6 26:8 27:8 28:9 29:14 30:13 31:9 32:2 
0.8500212738714771 0.866611245770722 0.9093886713459437 0.8074082162347109 0.9352350770683063 0.9039952740489519 0.8156083170757035 0.9185691676131944 0.8854652180638449 6:8 7:8 8:6 9:6 10:6 11:6 12:6 13:6 14:6 15:6 16:8 17:8 18:8 20:7 21:13 22:13 23:6 24:5 25:5 26:6 27:13 28:13 29:7 
0.5022090925846969 0.5127156550597325 0.5357228875696316 0.4762709826693731 0.5525879951296397 0.5388761162727453 0.4807067619372197 0.4952665490594606 0.503537437221699 4:4 5:8 6:6 7:6 8:6 9:6 10:6 11:6 12:6 13:7 14:7 15:8 16:4 17:13 18:13 20:2 21:2 22:10 23:13 24:13 25:8 26:6 27:6 28:9 29:13 30:13 31:9 32:2 
1 1 1 1 1 1 1 1 1 2:8 3:11 4:6 5:3 6:3 7:6 8:7 9:4 10:3 11:3 12:7 13:10 14:7 21:4 22:6 23:6 24:6 25:6 26:6 27:6 28:9 29:12 30:10 31:7 
1 1 1 1 1 1 1 1 1 2:9 3:9 7:4 8:8 9:6 10:7 11:6 12:6 13:6 14:6 15:6 16:6 17:8 18:8 19:4 20:2 21:9 22:13 23:13 24:8 25:7 26:7 27:9 28:13 29:11 30:7 
0.2089420046665554 0.2164351616333662 0.2146735997526644 0.2016940296354973 0.2219506341849543 0.2250789958191156 0.2016013427230647 0.2080613159564604 0.2624122951202949 5:4 6:8 7:6 8:6 9:6 10:6 11:6 12:6 13:7 14:7 15:6 16:8 17:4 20:7 21:11 22:11 23:6 24:4 25:4 26:6 27:11 28:11 29:7 32:2 
0.8341248538534527 0.8501364249462569 0.8880120931700166 0.7924751292908181 0.9205660517596492 0.9506971700163731 0.8010926973156965 0.8267793029114189 0.8442743613010716 5:4 6:8 7:6 8:6 9:6 10:6 11:6 12:6 13:6 14:7 15:7 16:9 17:8 20:3 23:7 24:12 25:12 26:6 27:4 28:4 29:6 30:12 31:12 32:7 
1 1 1 1 1 1 1 1 1 4:4 5:8 6:9 7:10 8:6 9:6 10:6 11:6 12:6 13:6 14:6 15:8 16:4 18:9 19:9 20:7 21:13 22:13 23:8 24:6 25:6 26:9 27:13 28:13 29:9 30:2 31:2 32:2 
0.5998453411829939 0.6099958356026556 0.6344975523824078 0.570155783949453 0.6502701832257493 0.6229014800184357 0.5773395600768684 0.6055375703594873 0.6060906057758818 4:4 5:8 6:6 7:6 8:6 9:6 10:6 11:6 12:6 13:8 14:7 15:8 16:4 17:13 18:13 20:2 21:2 22:10 23:13 24:13 25:9 26:6 27:6 28:9 29:13 30:13 31:9 32:2 
0.8812384921112694 0.8974333591996899 0.9355725875341847 0.837427099023788 0.9611561730435506 0.9319705640435164 0.8461777665751415 0.8776401594733474 0.8844754340678066 1:8 2:8 7:4 8:8 9:6 10:6 11:6 12:6 13:6 14:6 15:6 16:6 17:6 18:8 19:4 20:2 21:2 22:9 23:13 24:13 25:8 26:6 27:6 28:6 29:11 30:11 31:7 
0.7498056466046953 0.7639351593629647 0.8119576023065669 0.7116470902908708 0.8295170798274888 0.8275974799519138 0.7215582957872789 0.7803012297546298 0.8529655003667981 2:4 3:11 4:11 5:7 6:6 7:6 8:6 9:6 10:6 11:7 12:6 13:8 14:4 20:2 21:2 22:9 23:11 24:11 25:7 26:5 27:5 28:7 29:11 30:11 31:7 
0.3046489035913649 0.3099244775464639 0.3394465982494145 0.2904293883605106 0.3385891605057609 0.315936755531515 0.2930504021862446 0.3266758858291 0.3231189863728677 1:4 2:8 3:6 4:6 5:6 6:6 7:6 8:6 9:6 10:6 11:9 12:8 13:4 23:7 24:11 25:11 26:6 27:5 28:5 29:6 30:11 31:11 32:8 
0.4992102448039598 0.5073536793769653 0.5322388970369815 0.4771662135509655 0.5427870165903996 0.5367572228559109 0.4787608439610865 0.5501091487399027 0.4939457503047446 5:4 6:8 7:6 8:6 9:6 10:6 11:6 12:6 13:7 14:7 15:7 16:8 17:4 22:7 23:11 24:11 25:6 26:4 27:4 28:6 29:11 30:11 31:8 32:2 
0.8091800477270484 0.8242425486268382 0.8621742037940882 0.7684238435840046 0.8975484924150381 0.9047275365576302 0.7771527108584043 0.851881432067002 0.9209942553145513 2:8 3:8 4:6 5:6 6:6 7:8 8:10 9:8 10:6 11:6 12:6 13:8 14:7 20:2 21:2 22:7 23:13 24:13 25:8 26:6 27:4 28:6 29:13 30:12 31:7 
0.4142236309411744 0.422810275216868 0.4426159770197543 0.3942199582888267 0.4559761475957688 0.4357175174702034 0.3981608365744254 0.441092234542131 0.4001421589713393 4:8 5:8 6:6 7:6 8:6 9:6 10:6 11:6 12:6 13:6 14:6 15:8 16:4 21:7 22:12 23:12 24:6 25:4 26:4 27:6 28:12 29:12 30:7 
0.6672437498860571 0.6836860420017612 0.719288694907973 0.6342020277521753 0.7397996741521097 0.7926265438049714 0.6413515435141616 0.7762491109929406 0.7283902634158789 3:4 4:4 5:8 6:6 7:6 8:6 9:6 10:6 11:6 12:6 13:6 14:6 15:8 16:5 17:5 18:2 19:2 20:7 21:11 22:13 23:8 24:6 25:6 26:8 27:11 28:11 29:7 30:2 31:2 
0.1966735453465877 0.2000659697386823 0.2218557527423819 0.1866823328691885 0.2182297522945809 0.1935141377180436 0.1879825124062848 0.2378728193581274 0.2125374041758835 2:4 3:8 4:6 5:6 6:6 7:6 8:6 9:6 10:6 11:6 12:7 13:8 14:5 17:1 18:1 20:7 21:11 22:12 23:6 24:4 25:4 26:6 27:11 28:11 29:8 32:2 
0.753165164286815 0.7682246324606004 0.8022710670241753 0.7148907534930669 0.8282951280622523 0.8111255167350611 0.7217762824321119 0.7482380043110176 0.7363339010975001 6:5 7:9 8:6 9:7 10:6 11:6 12:7 13:7 14:9 15:9 16:8 17:8 18:4 20:6 21:2 23:7 24:11 25:11 26:8 27:5 28:5 29:7 30:11 31:11 32:7 
0.5364215205431467 0.5473233502783755 0.5745206763636687 0.5089653203820658 0.585500675913137 0.6320405260567946 0.5145824873417931 0.5482419007339789 0.5881013132659579 4:4 5:8 6:6 7:6 8:6 9:6 10:6 11:6 12:6 13:6 14:6 15:8 16:4 21:7 22:11 23:11 24:6 25:4 26:4 27:6 28:11 29:11 30:7 
0.3769896702028203 0.3834645358500878 0.3880932210922116 0.3573839851873698 0.4024536996166916 0.3482397090330919 0.3623994317571287 0.3485399950072575 0.3468595477060999 2:2 3:2 6:4 7:8 8:6 9:6 10:6 11:6 12:6 13:6 14:6 15:6 16:6 17:8 18:4 22:7 23:13 24:13 25:6 26:4 27:4 28:6 29:11 30:11 31:7 
0.9021065675525629 0.9195706085040808 0.9622101532767761 0.8568224500093223 0.9915678822153554 0.9602627745322647 0.866480372866099 0.933686973877589 0.9248501127663753 5:4 6:8 7:6 8:7 9:6 10:6 11:6 12:6 13:6 14:6 15:6 16:8 17:9 18:9 19:1 21:9 22:13 23:13 24:8 25:6 26:5 27:7 28:13 29:13 30:7 
0.7482808002034481 0.7630866829116065 0.7963628418786419 0.7108753938356082 0.8268766278001299 0.8366404520138302 0.7179461070216484 0.7803334876969174 0.8197850101261235 7:4 8:8 9:6 10:6 11:6 12:6 13:6 14:6 15:6 16:6 17:6 18:8 19:4 20:7 21:11 22:11 23:6 24:4 25:4 26:6 27:11 28:11 29:7 
0.02851362876681073 0.02947498668614654 0.03954687892874393 0.02769204758594603 0.03733706598455598 0.03460488994609366 0.0275041448759512 0.03067817642307221 0.06532473673474434 2:7 3:8 4:6 5:6 6:6 7:6 8:7 9:7 10:6 11:6 12:6 13:8 14:4 22:7 23:11 24:12 25:6 26:4 27:4 28:8 29:12 30:12 31:7 
1 1 1 1 1 1 1 1 1 5:4 6:8 7:7 8:7 9:7 10:7 11:7 12:7 13:6 14:6 15:6 16:8 17:11 18:11 19:2 20:4 21:3 22:3 23:10 24:13 25:13 26:8 27:5 28:5 29:7 30:13 31:13 32:7 
1 1 1 1 1 1 1 1 1 1:7 2:7 4:4 5:8 6:9 7:6 8:6 9:6 10:6 11:6 12:6 13:6 14:6 15:8 16:4 20:2 21:9 22:13 23:13 24:8 25:7 26:7 27:6 28:11 29:11 30:8 
0.02022888721693786 0.02178621779714156 0.03249285055663191 0.01799284971087346 0.02502843227020788 0.03699124414583069 0.01986995073176257 0.03234698458000374 0.07636773561260909 1:5 2:9 3:7 4:6 5:6 6:6 7:6 8:6 9:6 10:6 11:7 12:9 13:4 20:7 21:11 22:11 23:6 24:4 25:4 26:6 27:12 28:11 29:7 32:4 
0.06105090441396086 0.06096956547227263 0.06913726836945379 0.05875784332775619 0.06103338916603879 0.09450515564347041 0.05820068243704227 0.07328085028711516 0 3:4 4:8 5:7 6:6 7:6 8:6 9:6 10:6 11:6 12:7 13:9 14:8 15:4 21:7 22:11 23:11 24:7 25:5 26:5 27:6 28:11 29:11 30:9 
0.5872276062951221 0.5987729381079991 0.6262726145799379 0.5574064997886584 0.6451857626051919 0.6175249437888071 0.5633797798946043 0.5853314799232066 0.6231874001215344 5:4 6:8 7:6 8:6 9:6 10:6 11:6 12:6 13:6 14:6 15:6 16:8 17:8 21:7 22:12 23:12 24:6 25:4 26:4 27:6 28:12 29:12 30:7 
0.4323199911473044 0.4413001620364809 0.4861992806982742 0.4131019843324192 0.4809088246083744 0.6622007431930603 0.4137829054922102 0.587095835304202 0.5151992575748297 1:5 2:8 3:6 4:6 5:6 6:6 7:6 8:6 9:6 10:7 11:7 12:8 13:4 20:7 21:11 22:11 23:6 24:5 25:4 26:7 27:11 28:12 29:7 
0.6347477841810783 0.6463614874645042 0.6796629055978904 0.6021829691705717 0.7030379655072436 0.6951437093823399 0.6089159810597914 0.6930998909569209 0.6776996057383239 4:8 5:9 6:10 7:8 8:8 9:6 10:6 11:6 12:6 13:6 14:6 15:8 16:4 21:10 22:12 23:12 24:6 25:5 26:5 27:6 28:12 29:11 30:8 31:2 32:2 
0.3871293527930494 0.3937455505849659 0.4060561996690737 0.3670294157208746 0.4261949581708031 0.4589940457569171 0.3707905524722486 0.3369230774929691 0.4014961036800448 1:4 2:8 3:6 4:6 5:6 6:6 7:6 8:6 9:6 10:6 11:6 12:8 13:4 22:7 23:11 24:11 25:6 26:4 27:4 28:6 29:11 30:11 31:7 
-0.6821072041498101 0.7739490062372813 0.803251698722093 0.7275583473689591 0.8318613960362161 0.7830225840067194 0.7214753470319618 0.7438165589922882 0.7483266240787145 4:3 5:3 6:6 7:6 8:3 9:3 10:3 11:3 12:3 13:3 14:3 15:11 16:11 17:5 18:5 20:4 21:2 22:6 23:6 24:6 25:13 26:13 27:13 28:2 29:2 30:2 32:2 
-0.774739604751017 0.8754631490716323 0.9097709972437749 0.8092871111392095 0.9441331549626172 0.8886829580700821 0.8185613899780569 0.8444195878242236 0.8489287918520415 1:3 2:3 3:7 4:9 5:5 6:3 7:3 8:3 9:6 10:7 11:4 12:10 13:10 14:6 15:1 20:4 21:6 22:6 23:4 24:13 25:14 26:14 27:3 28:3 29:3 31:2 32:8 
-0.7810588769666264 0.8930689589877026 0.9184831611367937 0.8164077503149113 0.9529011342292844 0.8970087644390171 0.8273542212980642 0.8515911613248101 0.8562633945992089 5:3 6:4 7:7 8:7 9:6 10:4 11:3 12:3 13:3 14:6 15:9 16:10 17:9 18:4 19:4 20:2 21:5 22:6 23:7 24:13 25:13 26:13 27:6 28:6 29:4 30:2 32:5 
-0.7818581002454315 0.8834437648270842 0.919356247887523 0.8171655339483869 0.9554279436118337 0.8971963158020968 0.826756690288555 0.8529267049504703 0.8573309977054123 5:3 6:3 7:6 8:6 9:3 10:3 11:3 12:3 13:3 14:3 15:3 16:9 17:9 23:4 24:4 25:4 26:13 27:13 28:13 29:2 30:2 31:2 
-0.7359803773178595 0.8325299269630954 0.8651274791554169 0.7702760380732159 0.897523673629113 0.8443786497038028 0.7786377586796922 0.802541593029844 0.8070396092607284 1:3 2:3 3:6 4:6 5:3 6:3 7:3 8:3 9:7 10:8 11:4 12:10 13:10 14:1 15:1 20:6 23:4 24:4 25:4 26:13 27:13 28:13 29:4 30:4 31:4 32:2 
-0.769057666334225 0.912451412568789 0.9158616576421881 0.8031371627992247 0.9372999261350565 0.8816952006242823 0.821769501315424 0.837967856514254 0.8424704438856799 6:3 7:10 8:10 9:6 10:3 11:5 12:5 13:3 14:3 15:3 16:3 17:9 18:9 20:4 21:4 22:5 23:5 24:5 25:13 26:13 27:13 28:4 29:4 30:2 
-0.8912810097888837 1 1 0.9312710264427189 1 1 0.9420483050707896 0.9712499248826026 0.9769354311803505 6:3 7:4 8:13 9:13 10:4 11:6 12:6 13:4 14:3 15:3 16:3 17:9 18:9 20:2 21:4 22:6 23:6 24:13 25:13 26:13 27:4 28:4 29:4 30:2 31:2 32:7 
-0.4415086271259572 0.499414337056283 0.5188462100858582 0.461443059339325 0.5384124620743988 0.5064481808511528 0.4674013407017692 0.4810814218222282 0.4842782204309996 2:3 3:3 4:6 5:6 6:3 7:5 8:6 9:4 10:3 11:3 12:3 13:9 14:10 15:1 16:1 20:2 21:6 22:4 23:6 24:13 25:13 26:13 27:2 28:2 29:2 32:3 
-0.8315167574973854 0.9451290612300665 0.977933781832444 0.8707338546664699 1 0.9536771475686121 0.8794410744076134 0.9065530247971623 0.9112135175837289 2:3 3:3 4:6 5:6 6:3 7:3 8:3 9:3 10:3 11:3 12:3 13:10 14:13 15:7 16:7 20:3 21:3 22:3 23:6 24:6 25:6 26:15 27:13 28:13 29:2 30:2 31:2 32:2 
-0.4050990205074346 0.455677657774566 0.4769245344645335 0.4233381907642083 0.4967812210000977 0.4657984023118729 0.4281494831550567 0.4410469676055703 0.4435871161495758 6:3 7:3 8:7 9:7 10:4 11:4 12:3 13:3 14:3 15:3 16:3 17:9 18:9 21:4 22:4 23:4 24:13 25:13 26:13 27:2 28:2 29:2 32:4 
-0.2577875207804775 0.2879542336941033 0.3026781469230787 0.2814087420230731 0.3144243881313846 0.2954141450833043 0.2725817002580349 0.2803307640530274 0.2817900886154295 4:3 5:3 6:6 7:6 8:4 9:3 10:3 11:3 12:4 13:4 14:3 15:9 16:9 20:2 22:4 23:4 24:5 25:13 26:13 27:13 28:2 29:2 30:2 
-0.7619258656797437 0.8919781285434644 0.8950110984376137 0.7960075243827193 0.9291458413288841 0.8746910678088837 0.8367427085508062 0.8305375404108927 0.8349229246638797 6:6 7:9 8:6 9:6 10:6 11:3 12:3 13:3 14:3 15:3 16:5 17:9 18:9 19:2 22:6 23:6 24:7 25:14 26:13 27:13 28:4 29:5 30:5 
-0.5942696770134709 0.6711750239108159 0.6975987434691333 0.6208774762919893 0.7240884835144722 0.6812475706805931 0.6274594868141361 0.6477844379088591 0.6511324807291695 2:1 3:4 4:3 5:6 6:6 7:3 8:3 9:3 10:3 11:5 12:7 13:7 14:9 15:9 16:3 21:4 22:6 23:6 24:14 25:13 26:13 27:2 28:4 29:4 31:2 32:4 
-0.2054416423561321 0.2343742390215025 0.2425506547362872 0.2203038041314025 0.2493317465237696 0.2345179077576356 0.2179288732978148 0.2245158249264168 0.2260862589973426 3:3 4:3 5:6 6:6 7:5 8:3 9:3 10:3 11:3 12:3 13:3 14:9 15:9 22:4 23:5 24:5 25:13 26:13 27:13 28:2 29:2 30:2 
-0.8987815065247855 1 1 0.9395357360603537 1 1 0.950315111624273 0.979904255577236 0.9854903741167929 6:4 7:4 8:8 9:8 10:5 11:5 12:5 13:5 14:4 15:4 16:3 17:9 18:9 20:4 21:4 22:4 23:13 24:13 25:13 26:2 27:2 28:2 31:6 32:10 
-0.3032191142229163 0.3440915606925463 0.3550594765160902 0.3181549473728066 0.3696876033416686 0.3483288619733153 0.3211030440275807 0.3308969839685297 0.3323242664692552 4:1 5:4 6:3 7:6 8:7 9:5 10:3 11:3 12:3 13:4 14:4 15:9 16:9 17:9 21:5 22:5 23:6 24:13 25:13 26:13 27:5 28:3 29:3 32:4 
-0.3147286353714841 0.3545100739871888 0.3700340550291635 0.3288836013957987 0.3841054706547576 0.3613923962816351 0.3325717957419003 0.3432247603437098 0.3454296994943171 2:3 3:3 4:6 5:6 6:3 7:3 8:3 9:3 10:4 11:4 12:4 13:10 14:9 21:4 22:4 23:4 24:13 25:13 26:13 27:2 28:2 29:2 32:4 
-0.00222368813976015 0 0 0 0 0 0 0 0 4:3 5:3 6:6 7:6 8:5 9:3 10:3 11:3 12:3 13:3 14:3 15:9 16:9 23:5 24:5 25:4 26:13 27:13 28:13 29:2 30:2 31:2 
-0.4484365029046077 0.509844550071868 0.5311067533988167 0.4740019953127014 0.5468837421714977 0.5145343383213273 0.4707065354862018 0.4887815371456469 0.4912006837995653 5:3 6:3 7:6 8:6 9:3 10:3 11:3 12:3 13:3 14:5 15:6 16:10 17:10 18:4 20:2 21:2 22:6 23:5 24:4 25:14 26:14 27:14 28:3 29:2 30:2 
-0.3487596820392693 0.3905418150021946 0.4091662844904038 0.3640853831949345 0.424914660468909 0.4006800017827268 0.3695377077811134 0.3799593803520035 0.3824866492110599 5:3 6:3 7:6 8:6 9:5 10:3 11:3 12:3 13:3 14:3 15:3 16:9 17:9 22:4 23:5 24:5 25:13 26:13 27:13 28:2 29:2 30:2 
-0.6748864287714728 0.7631513418559099 0.7930892349804318 0.7056120624175726 0.8229640010563112 0.774618641067175 0.7138652743984958 0.7362140577379408 0.7401972237470302 1:3 2:3 3:6 4:6 5:4 6:4 7:4 8:4 9:4 10:4 11:3 12:9 13:9 14:2 15:5 16:3 20:2 21:6 22:4 23:4 24:13 25:13 26:13 27:2 28:2 29:2 30:2 31:2 32:8 
-0.5679048625489552 0.6494591715426524 0.671079519041485 0.5937773471971434 0.6928174148199199 0.6515115286826334 0.6025165923781317 0.6201662118260423 0.6232558077832713 5:6 6:8 7:8 8:9 9:4 10:3 11:3 12:3 13:3 14:3 15:4 16:10 17:9 18:5 19:2 20:4 21:2 22:2 23:7 24:7 25:5 26:14 27:14 28:13 29:4 30:4 31:2 32:2 
-0.5499498199854951 0.6221517052885521 0.64612518987204 0.5749865750881742 0.670208074969557 0.6305411760180273 0.581164466051824 0.5991158295623015 0.6032809161503502 1:3 2:3 3:6 4:6 5:6 6:3 7:3 8:3 9:4 10:4 11:4 12:10 13:10 14:1 15:1 21:5 22:5 23:5 24:13 25:13 26:13 27:2 28:2 29:2 32:7 
-0.8545120382146801 0.9686609040100058 1 0.8975861702147524 1 0.9803866704069553 0.9027100432973593 0.9313203040817046 0.9365813670864706 5:3 6:3 7:6 8:6 9:4 10:6 11:5 12:7 13:7 14:3 15:4 16:10 17:10 20:7 21:2 22:2 23:6 24:6 25:6 26:13 27:13 28:13 29:2 30:2 31:2 
-0.886170783400056 1 1 0.9263172387150035 1 1 0.9367034412790919 0.9665915230700929 0.9715007799460117 7:3 8:3 9:6 10:10 11:12 12:6 13:6 14:4 15:3 16:3 17:3 18:9 19:9 20:2 22:5 23:5 24:5 25:13 26:13 27:13 28:5 29:6 30:4 31:2 32:4 
-0.8402151010314948 0.9745310585008443 0.9882246057653145 0.8780692743357494 1 0.9639158953056695 0.895600964407051 0.9159165861222276 0.9210656185197484 5:11 6:11 7:6 8:7 9:4 10:3 11:3 12:3 13:3 14:3 15:3 16:9 17:9 20:4 21:2 22:6 23:6 24:6 25:13 26:13 27:13 28:4 29:4 30:4 
-0.8424603410907672 0.9548527722289079 0.9897570062404595 0.8806883374211014 1 0.9668364460768085 0.9133474076485545 0.9186970376736557 0.923807714801537 1:3 2:3 6:3 7:3 8:6 9:6 10:3 11:3 12:3 13:3 14:6 15:7 16:5 17:11 18:11 20:2 21:2 22:4 23:4 24:5 25:13 26:13 27:13 28:4 29:4 30:6 31:4 32:2 
-0.4275733352765523 0.4902636042487447 0.5018294418479372 0.4466250192868431 0.520700239581653 0.4901746772389505 0.4515002336148009 0.4656106226800353 0.4676893691814915 1:3 2:3 3:6 4:6 5:3 6:3 7:3 8:3 9:3 10:3 11:6 12:10 13:9 21:2 22:5 23:5 24:4 25:13 26:13 27:13 28:2 29:2 30:2 
-0.5459818427407416 0.6180396674639899 0.6491567962396926 0.5700151402335397 0.6664470076099209 0.6266176300589812 0.5767110259897121 0.5943121938986709 0.5978790513157922 4:2 5:5 6:8 7:7 8:7 9:3 10:3 11:3 12:3 13:3 14:3 15:4 16:10 17:9 18:5 20:5 21:3 23:5 24:6 25:6 26:14 27:14 28:14 29:4 30:2 31:2 
-0.4290136389318301 0.4867989187383635 0.5044257921759273 0.4515977410769377 0.5227083627074788 0.4932392283364613 0.4539167780320925 0.4679436032800494 0.4706832214092536 1:3 2:3 3:6 4:6 5:3 6:3 7:3 8:3 9:4 10:4 11:6 12:9 13:9 20:3 23:5 24:5 25:4 26:13 27:13 28:13 29:2 30:2 31:2 
-0.8826361877095232 0.995455921551023 1 0.9226725730091161 1 1 0.9332772710271368 0.9624048083106253 0.9675710381527506 2:4 3:4 4:1 5:4 6:4 7:4 8:7 9:7 10:3 11:3 12:3 13:3 14:3 15:3 16:3 17:9 18:9 20:6 23:4 24:4 25:4 26:16 27:16 28:16 29:4 30:2 31:2 
-0.9028191279048147 1 1 0.9436939860157793 1 1 0.9544996749334129 0.9844958621177204 0.9900211213257352 1:1 2:10 3:10 4:1 6:3 7:3 8:6 9:6 10:3 11:4 12:4 13:3 14:3 15:3 16:7 17:9 18:9 20:2 21:6 22:6 23:7 24:15 25:15 26:15 27:5 28:5 29:3 32:6 
-0.5271960382590477 0.5926165160465028 0.6204322460811484 0.5495885410605675 0.644413477757998 0.6041467611394453 0.5570557478853931 0.5744161582248214 0.5783222100122322 2:3 3:3 4:6 5:6 6:3 7:3 8:3 9:3 10:3 11:3 12:3 13:9 14:9 24:4 25:4 26:4 27:13 28:13 29:13 30:2 31:2 32:2 
-0.1182038742842525 0.1268839365573551 0.1326098989248745 0.120603136771904 0.1423281035127225 0.133242089296095 0.07647918796873945 0.1275052836976645 0.1277218463166217 6:3 7:3 8:6 9:6 10:3 11:3 12:3 13:3 14:3 15:3 16:3 17:9 18:9 22:4 23:4 24:4 25:13 26:13 27:13 28:2 29:2 30:2 
-0.8948668650819995 1 1 0.9456534510114937 1 1 0.945846819793807 0.9754944550263538 0.9807160151831624 1:2 2:2 3:3 4:3 5:6 6:7 7:5 8:5 9:5 10:5 11:4 12:8 13:10 14:9 15:9 20:9 21:6 23:2 24:6 25:6 26:6 27:13 28:13 29:13 30:3 31:3 32:3 
-0.1283464522162794 0.146015775582739 0.1507573277838914 0.1342804747476583 0.1569810901508434 0.1479012853420735 0.1373367012311703 0.1401182756433551 0.1410934453979248 3:3 4:3 5:6 6:6 7:3 8:3 9:3 10:4 11:4 12:4 13:3 14:9 15:9 16:3 21:5 22:5 23:5 24:13 25:13 26:13 27:2 28:2 29:2 32:3 
-0.8390198211086097 0.94689628729746 0.9861605194833616 0.8770434381024491 1 0.9628258691497686 0.8879166215410497 0.9150352728394366 0.9205716841647242 3:3 4:4 5:6 6:6 7:10 8:10 9:3 10:3 11:3 12:3 13:5 14:9 15:9 21:7 22:7 23:5 24:13 25:13 26:13 27:4 28:4 29:4 30:2 31:2 
-0.8715555438856421 0.993203678726999 1 0.9122130442541998 1 1 0.9212174013206872 0.9503191456925593 0.9557757797008664 2:3 3:3 4:6 5:6 6:3 7:3 8:3 9:3 10:3 11:3 12:6 13:9 14:10 15:10 20:2 24:6 25:6 26:6 27:14 28:14 29:14 30:3 31:3 32:3 
-0.8969016722704756 1 1 0.9379769809947091 1 1 0.9483131202495344 0.9780192708327717 0.9834918318158998 1:3 2:3 3:6 4:6 5:3 6:3 7:3 8:3 9:3 10:3 11:3 12:9 13:9 15:10 16:10 20:2 21:2 22:6 23:6 24:6 25:15 26:15 27:15 28:4 29:4 30:2 
-0.9048576032460521 1 1 0.9456149143317455 1 1 0.9561674404197375 0.9862768475850169 0.9917247959255394 3:3 4:3 5:3 6:5 7:5 8:3 9:3 10:3 11:3 12:3 13:3 14:3 15:8 16:8 17:2 18:3 19:1 20:4 21:4 22:14 23:14 24:14 25:2 26:4 27:4 31:2 
-0.165713652363568 0.1887976411071819 0.1957561831086189 0.1752327065058758 0.2057477825651092 0.1923004383975523 0.1767671379912311 0.1821383337890387 0.1836556664467969 3:3 4:3 5:3 6:6 7:6 8:3 9:3 10:3 11:3 12:3 13:3 14:4 15:10 16:9 20:2 23:4 24:4 25:4 26:14 27:14 28:14 29:2 30:2 31:2 
-0.8612630937793604 0.9764726144820332 1 0.9037102784712502 1 0.9892705622258876 0.9114510137890801 0.9394080222578375 0.9445463533337573 1:3 2:3 3:6 4:6 5:3 6:3 7:3 8:3 9:3 10:3 11:4 12:11 13:10 14:6 20:2 23:2 24:4 25:5 26:5 27:14 28:14 29:14 30:3 31:2 32:2 
-0.5378803894952996 0.6076773330503957 0.6339146665959704 0.5623257576013878 0.6562713346519774 0.6177291209729051 0.5701017226290832 0.5864804123061111 0.5905419429115307 4:3 5:6 6:7 7:7 8:6 9:3 10:3 11:3 12:3 13:3 14:3 15:9 16:9 21:6 22:6 23:6 24:13 25:13 26:13 27:2 28:2 29:2 32:2 
-0.9026211212990597 1 1 0.9431685855609731 1 1 0.9541682107519671 0.9841398697278685 0.989752573772775 2:3 3:3 4:6 5:6 6:3 7:4 8:4 9:3 10:3 11:3 12:6 13:9 14:9 17:3 18:9 19:9 20:3 21:7 22:7 23:4 24:13 25:13 26:13 27:5 28:5 29:5 30:2 31:2 32:4 
-0.8988184133786339 1 1 0.9392817528669919 1 1 0.9495380769413714 0.979735042380567 0.9851073327624178 2:3 3:3 4:6 5:6 6:3 7:3 8:3 9:3 10:3 11:3 12:5 13:11 14:9 15:4 16:1 17:11 18:12 19:4 20:4 21:4 22:2 23:2 24:7 25:7 26:7 27:15 28:15 29:16 30:5 31:5 32:4 
-0.1192372030477191 0.1299123969889341 0.1392185328046833 0.1237798874379693 0.1458029949435415 0.1431069888176456 0.1256387389951831 0.1299705857962953 0.1300645446748364 7:3 8:3 9:7 10:7 11:4 12:4 13:4 14:3 15:3 16:3 17:3 18:9 19:9 21:4 22:4 23:4 24:13 25:13 26:13 27:2 28:2 29:2 32:5 
-0.4079014296993809 0.4648360415780567 0.4796594758623825 0.4407782625187896 0.4984111709049927 0.4684800882817061 0.4317774337398692 0.445512808755545 0.4478756419929092 4:3 5:3 6:6 7:6 8:3 9:3 10:3 11:3 12:3 13:5 14:7 15:11 16:9 17:3 20:2 21:2 22:6 23:6 24:4 25:13 26:13 27:14 28:3 29:3 30:2 
-0.5322402854428745 0.6039652187443731 0.625611458476498 0.5563060211709037 0.6492024419196729 0.6113229330271536 0.5630293714978064 0.5808133143941652 0.5838828912669539 3:3 4:3 5:6 6:6 7:3 8:3 9:3 10:3 11:3 12:6 13:10 14:10 15:9 22:6 23:6 24:6 25:13 26:13 27:13 28:3 29:3 30:3 32:2 
-0.3106794084544473 0.3526387544710421 0.3655445324019308 0.3253201610876036 0.3796185330098652 0.3567761696436324 0.3294547632867926 0.3396195015868347 0.340551733958798 2:3 3:3 4:6 5:6 6:3 7:3 8:3 9:3 10:3 11:3 12:3 13:9 14:9 15:4 16:2 17:2 22:5 23:5 24:6 25:15 26:13 27:13 28:3 29:3 30:2 
-0.7829896140212161 0.8890975934000275 0.9204885650397585 0.8188645135168042 0.955079563183234 0.8987183471706158 0.8280514632509678 0.8541476800174429 0.8588933029680382 5:3 6:3 7:6 8:7 9:7 10:4 11:4 12:6 13:7 14:4 15:11 16:11 17:9 20:2 21:8 22:6 23:6 24:13 25:13 26:13 27:5 28:3 29:3 31:2 32:8 
-0.8723138779504929 1 1 0.9132122240864974 1 1 0.9222163046417937 0.9517040883783877 0.9566153996984669 2:3 3:3 4:6 5:6 6:3 7:3 8:3 9:3 10:3 11:3 12:6 13:12 14:13 15:13 20:3 21:3 22:3 23:5 24:5 25:5 26:14 27:14 28:14 29:4 30:4 31:4 32:2 
-0.7304611382867589 0.828392171307635 0.8581513002778698 0.7633792833826869 0.890475340033872 0.8378837308452946 0.772838833609076 0.7963667361849501 0.8009427379651553 1:3 2:6 3:8 4:8 5:5 6:3 7:3 8:3 9:3 10:3 11:6 12:9 13:9 22:6 23:6 24:6 25:13 26:13 27:13 28:2 29:2 30:2 31:3 32:3 
-0.6020922154354792 0.6800819487363767 0.7074084482489476 0.6288049716801643 0.7339123138181152 0.6912769823395907 0.6368992303093151 0.6566697352311832 0.6601014683997998 1:4 2:4 3:3 4:3 5:6 6:6 7:3 8:3 9:3 10:3 11:3 12:3 13:3 14:9 15:9 22:4 23:4 24:4 25:13 26:13 27:13 28:2 29:4 30:4 31:2 32:2 
-0.8587092831456389 0.969723911569997 1 0.8978501039242283 1 0.9857464010456343 0.9083152114820442 0.9365424667154908 0.9415729925328413 2:3 3:3 4:5 5:6 6:6 7:5 8:9 9:10 10:4 11:3 12:3 13:3 14:9 15:9 16:2 20:2 21:5 22:5 23:4 24:14 25:14 26:14 27:5 28:6 29:5 30:2 31:2 32:2 
-0.7182801640437779 0.8116376218274675 0.844538226869429 0.7517978253176216 0.8759475440164191 0.8248230467887936 0.7596190404976591 0.7833044421408445 0.7879598517023222 2:3 3:3 4:6 5:6 6:3 7:3 8:3 9:3 10:7 11:7 12:3 13:9 14:9 22:4 23:4 24:4 25:13 26:13 27:13 28:2 29:4 30:4 31:2 32:2 
-0.734135889832869 0.8284355058697343 0.8629674219689215 0.7694647448752543 0.896184324305236 0.8422151792826231 0.7760883284821972 0.8007423286398506 0.8044943666513449 3:3 4:3 5:6 6:6 7:3 8:6 9:9 10:6 11:3 12:3 13:3 14:9 15:9 22:6 23:6 24:6 25:13 26:13 27:13 28:2 29:4 30:4 31:2 
-0.9048394607608318 1 1 0.94524593401138 1 1 0.9560888808052054 0.986205622765857 0.9916681432103931 7:3 8:3 9:6 10:10 11:11 12:9 13:8 14:5 15:3 16:3 17:3 18:9 19:9 20:6 21:5 22:5 23:13 24:13 25:13 26:2 27:2 28:5 29:4 30:4 31:5 32:5 
-0.2968118892325002 0.329012370421676 0.3465852308494987 0.3101367812449645 0.3624965768540333 0.3408414577053717 0.449642458402254 0.3240170214821533 0.3260856802818113 6:3 7:4 8:7 9:6 10:3 11:5 12:5 13:3 14:3 15:3 16:3 17:9 18:9 22:6 23:6 24:4 25:13 26:13 27:13 28:2 29:2 30:2 32:2 
-0.6170330887855495 0.6970829571123919 0.7249104089326508 0.6436923309542822 0.7522220903939473 0.707416679531459 0.6528844183550688 0.6728475997504196 0.6762700831858129 1:3 2:3 3:6 4:6 5:3 6:3 7:3 8:3 9:3 10:3 11:3 12:9 13:9 23:4 24:4 25:4 26:13 27:13 28:13 29:2 30:2 31:2 
-0.7003291424080792 0.7899236937501505 0.8232896233444668 0.7314794350468675 0.8542174659434482 0.8037133397275622 0.7442202037230468 0.7635578048192423 0.7679049407594143 3:2 4:5 5:3 6:3 7:6 8:6 9:6 10:3 11:3 12:3 13:3 14:3 15:3 16:9 17:9 18:4 22:5 23:6 24:6 25:15 26:15 27:14 28:2 29:2 30:2 31:2 32:2 
-0.8078695781506305 0.9122396729338126 0.9498782786394659 0.8449997064047438 0.9852971886432935 0.9273233205615938 0.8541245164813597 0.8809180982078977 0.8861261120927404 2:3 3:3 4:6 5:6 6:3 7:3 8:3 9:3 10:3 11:3 12:13 13:13 14:10 15:10 20:4 21:2 22:6 23:6 24:6 25:14 26:14 27:14 28:4 29:4 30:4 31:2 32:2 
-0.001108968046922816 0.01819570175371674 0.05798903206781383 0 0.0981661423173656 0.03380949774283332 0 0 0 4:3 5:3 6:6 7:6 8:3 9:3 10:3 11:3 12:3 13:3 14:3 15:9 16:9 24:4 25:4 26:4 27:13 28:13 29:13 30:2 31:2 32:2 
-0.2781329282285797 0.3130885500725542 0.3256182737698217 0.2910054600569544 0.3388798043627858 0.3193522647462345 0.2937299207505225 0.3032162015258886 0.3052508278786187 5:3 6:3 7:6 8:6 9:3 10:3 11:3 12:5 13:5 14:3 15:5 16:11 17:9 18:2 22:4 23:6 24:6 25:13 26:14 27:14 28:2 29:2 30:2 31:2 32:2 
-0.5022208586297242 0.5708509832146144 0.5888725832675824 0.5246522150834262 0.6128528319761581 0.5794564100799208 0.5312890057009928 0.5496726265493495 0.5495384121911308 3:3 4:3 5:6 6:6 7:3 8:3 9:3 10:3 11:3 12:3 13:3 14:9 15:11 16:12 17:12 21:2 22:6 23:6 24:6 25:15 26:15 27:15 28:4 29:4 30:4 31:3 32:3 
-0.9047036109976778 1 1 0.9456071089888207 1 1 0.9563516274771459 0.9862448497212821 0.9918430409067676 1:3 2:3 3:6 4:6 5:4 6:4 7:12 8:13 9:13 10:3 11:3 12:9 13:9 15:1 16:1 20:4 21:3 22:3 23:7 24:7 25:8 26:13 27:13 28:13 29:6 30:5 31:5 32:3 
-0.7389558367295277 0.8367882108820273 0.8679877316452994 0.7722820867058321 0.9013453394874347 0.8478722008952296 0.7811277313666756 0.8057375034056644 0.8100674254663463 1:3 2:3 3:6 4:6 5:3 6:3 7:3 8:3 9:3 10:3 11:3 12:9 13:11 14:12 15:7 20:2 21:2 22:5 23:5 24:5 25:15 26:15 27:15 28:4 29:4 30:4 31:2 
-0.8998130453027462 1 1 0.9406261930488054 1 1 0.9517327208850723 0.9816593300683102 0.9867712157156212 1:2 2:2 4:2 5:2 6:5 7:7 8:9 9:6 10:5 11:3 12:3 13:3 14:3 15:3 16:3 17:9 18:9 20:7 21:5 24:5 25:5 26:5 27:13 28:13 29:13 30:4 31:4 32:2 
-0.3392284502718126 0.3873606594578087 0.3979233899250841 0.3533054012024387 0.4129250010223363 0.3881743422580434 0.358414742973988 0.3692065588587205 0.3703031886420434 2:3 3:3 4:6 5:6 6:3 7:3 8:3 9:3 10:3 11:3 12:6 13:9 14:9 22:5 23:5 24:4 25:13 26:13 27:13 28:3 29:2 30:2 
-0.8997038348946607 1 1 0.9402871467300634 1 1 0.9509430781876269 0.9810869380677439 0.9863460847612767 3:1 4:4 5:3 6:6 7:7 8:6 9:5 10:5 11:5 12:5 13:4 14:4 15:9 16:12 17:13 18:9 19:9 20:13 21:8 22:4 23:4 24:8 25:8 26:7 27:16 28:16 29:14 30:3 31:3 32:3 
-0.8697907441315401 0.9827594676574391 1 0.9097668551306345 1 0.998633148546918 0.9201582240820175 0.9487587134338575 0.9537811082864292 2:3 3:3 4:6 5:6 6:3 7:3 8:3 9:3 10:3 11:3 12:3 13:9 14:9 15:9 16:2 17:2 18:6 19:6 20:4 21:4 22:8 23:8 24:5 25:16 26:16 27:14 28:3 29:2 30:2 
-0.05643985778204279 0.06789570542640425 0.06694561291244747 0.05751618769637263 0.06901497443940696 0.06428080689412927 0.05949286332628691 0.06222764958576876 0.061187096034666 2:3 3:4 4:6 5:6 6:3 7:3 8:3 9:3 10:3 11:3 12:3 13:10 14:10 20:2 23:4 24:4 25:5 26:13 27:13 28:13 29:2 30:2 31:2 
-0.4392681574327177 0.4958077326517255 0.5156813470697182 0.4590975607728463 0.5352821517498795 0.5041537880383273 0.4645507453814137 0.4786100936373368 0.4810622662720513 2:3 3:3 4:6 5:6 6:3 7:3 8:3 9:3 10:3 11:3 12:4 13:9 14:9 15:3 21:4 22:5 23:6 24:14 25:13 26:13 27:2 28:2 29:2 
-0.04337371317238075 0.04850333175126269 0.04702796314095943 0.04449227236838354 0.0516530586413383 0.04766338715658842 0.04490973065117734 0.04726196598025158 0.0451666581943806 4:3 5:5 6:7 7:7 8:4 9:3 10:3 11:3 12:3 13:3 14:3 15:9 16:9 21:4 22:4 23:5 24:13 25:13 26:13 27:2 28:2 29:2 32:4 
-0.7925169285339208 0.8989441253578825 0.932504600451156 0.8320930328188128 0.9665340335369352 0.9102189911271522 0.8386403791054106 0.8643192954440697 0.8690801681003493 2:3 3:3 4:6 5:6 6:8 7:8 8:5 9:3 10:3 11:3 12:4 13:10 14:9 20:2 21:3 22:3 23:6 24:6 25:6 26:13 27:13 28:13 29:2 30:2 31:2 
-0.6090567915027524 0.688474981008102 0.7160960994871246 0.6483021855741915 0.7433435282303202 0.6988968456450285 0.6440294820452845 0.6640761555479512 0.6682006062690709 3:3 4:3 5:6 6:6 7:3 8:4 9:4 10:4 11:4 12:3 13:6 14:11 15:9 16:3 18:2 19:2 20:2 21:2 22:6 23:4 24:4 25:13 26:14 27:14 28:3 29:2 30:3 31:2 32:4 
-0.9003378778616497 1 1 0.9409705030184984 1 1 0.9521061864113806 0.9813678435410619 0.9870304182518963 4:3 5:5 6:9 7:7 8:5 9:11 10:11 11:3 12:3 13:3 14:9 15:9 16:9 21:5 22:7 23:7 24:13 25:13 26:13 27:6 28:6 29:7 30:4 31:2 32:4 
-0.6865896339714128 0.7748990696914638 0.8072242739194969 0.724057075948731 0.8370117660941083 0.7876713028544826 0.7257567011460984 0.7483812280290468 0.7522518143748671 1:3 2:3 3:6 4:6 5:3 6:3 7:3 8:3 9:4 10:4 11:4 12:10 13:10 14:3 15:6 16:3 20:6 21:2 22:3 23:4 24:4 25:4 26:13 27:13 28:13 29:2 30:4 31:4 32:2 
-0.8625431892637059 0.973402899049575 1 0.9014871754751902 1 0.9898896738223987 0.9117533063174058 0.9404869960144991 0.94573255207213 2:6 3:6 5:3 6:3 7:6 8:6 9:3 10:3 11:4 12:4 13:4 14:4 15:3 16:9 17:9 20:4 23:4 24:4 25:4 26:15 27:15 28:15 29:4 30:4 31:4 
-0.4639478348273048 0.5209204955064652 0.5460009450556836 0.4855618226836175 0.5662587220759766 0.5332975318141524 0.4933222748264324 0.5062755577063551 0.5099000011504884 5:3 6:3 7:3 8:6 9:6 10:3 11:3 12:3 13:3 14:3 15:3 16:3 17:9 18:9 19:2 22:4 23:4 24:4 25:14 26:14 27:14 28:2 29:3 30:3 
-0.4652834374000941 0.5241538394729196 0.547682598003901 0.486209463802987 0.5665811914908893 0.5309682493275686 0.4912114071175494 0.5053010125277555 0.5110356804685236 3:3 4:3 5:6 6:6 7:3 8:3 9:3 10:3 11:3 12:3 13:3 14:9 15:11 16:11 17:11 22:6 23:6 24:6 25:15 26:15 27:15 28:4 29:4 30:4 31:3 32:3 
-0.7051379778804356 0.795397979498244 0.8288604540976061 0.7368860676040889 0.8605023751689865 0.8097471543758419 0.7466303082580829 0.7686883564214679 0.7731005292787054 3:3 4:4 5:1 7:3 8:3 9:6 10:6 11:3 12:3 13:3 14:3 15:3 16:3 17:3 18:9 19:9 20:2 22:4 23:4 24:4 25:13 26:13 27:13 28:2 29:2 30:4 31:2 32:2 
-0.1423032982448052 0.1598803502955955 0.1687710552924336 0.1486510621798013 0.1728977721121915 0.1633604465108283 0.1506521403304149 0.1540890727713779 0.1562838046962704 5:3 6:3 7:6 8:6 9:3 10:3 11:3 12:3 13:3 14:3 15:6 16:9 17:9 21:4 22:4 23:4 24:13 25:13 26:13 27:3 28:3 29:3 
-0.7766585806556141 0.8772505336294592 0.9133399199460518 0.8122233329029529 0.9480457156566073 0.8912455269836953 0.8216294505934906 0.8476145771673713 0.8519643336054126 4:1 5:1 6:4 7:6 8:6 9:6 10:5 11:4 12:4 13:4 14:3 15:3 16:3 17:9 18:9 19:6 21:6 22:6 23:7 24:14 25:14 26:14 27:2 28:2 29:2 32:7 
-0.8979200461101078 1 1 0.9381424934785387 1 1 0.9486277365764365 0.9783815126550373 0.9840148238982819 4:3 5:3 6:6 7:6 8:6 9:3 10:3 11:3 12:3 13:3 14:3 15:9 16:11 17:13 18:8 19:8 20:3 21:3 22:8 23:8 24:8 25:14 26:16 27:16 28:5 29:3 30:3 31:2 32:2 
-0.8965918603097689 1 1 0.9371542738514727 1 1 0.9483111093380588 0.9778863431159672 0.9829863629200133 1:3 2:3 3:6 4:6 5:3 6:3 7:3 8:3 9:3 10:3 11:5 12:9 13:9 15:7 16:7 17:12 18:5 20:3 21:3 22:8 23:8 24:7 25:16 26:16 27:13 28:4 29:4 30:4 31:2 32:2 
-0.3115561713604925 0.3497583239728722 0.3706519336090589 0.3267040980315379 0.3793497511381903 0.356454670970454 0.3275762741261734 0.3389246441928445 0.3410139203418713 3:3 4:3 5:7 6:7 7:4 8:4 9:4 10:4 11:3 12:3 13:3 14:9 15:9 21:4 22:4 23:4 24:13 25:13 26:13 27:2 28:2 29:2 32:6 
-0.8791771627589426 0.9942149586496053 1 0.9198865781705665 1 1 0.9298197741699167 0.9586081683690824 0.9638462036400168 3:3 4:3 5:6 6:6 7:3 8:3 9:3 10:3 11:3 12:3 13:3 14:9 15:9 23:4 24:4 25:4 26:13 27:13 28:13 29:2 30:2 31:2 
-0.3572159062590686 0.4063011384405957 0.4191292381869636 0.3730316645736476 0.4344607283005107 0.3969277210434485 0.3769916909178487 0.389129666061282 0.3908149391697999 7:3 8:7 9:7 10:7 11:4 12:3 13:3 14:3 15:3 16:3 17:3 18:9 19:9 21:5 22:5 23:5 24:13 25:13 26:13 27:2 28:2 29:2 32:4 
-0.5960850139849361 0.6858834259538421 0.7007632060827483 0.6233588925371733 0.727427391255407 0.6846184090165298 0.6316793156294401 0.6500624534308053 0.6540473329503836 5:3 6:7 7:7 8:6 9:3 10:3 11:3 12:3 13:3 14:3 15:4 16:10 17:9 18:5 19:3 20:2 23:5 24:5 25:5 26:13 27:14 28:14 29:6 30:4 31:2 32:2 
-0.6912310423496073 0.780126491639375 0.8126507886730181 0.7227655162404806 0.8433353778835799 0.7937120657961404 0.7310406600934502 0.7542253868157449 0.7584270937347901 3:3 4:4 5:7 6:7 7:4 8:4 9:4 10:7 11:6 12:3 13:7 14:9 15:9 21:5 22:5 23:4 24:13 25:13 26:13 27:2 28:5 29:5 30:2 32:7 
-0.6122592194697329 0.6906526967198792 0.71930471226132 0.6402000320557709 0.747000556561752 0.7025866864539339 0.6474249843295258 0.6678484665211392 0.6715896929200247 2:3 3:3 4:6 5:6 6:3 7:3 8:3 9:3 10:3 11:3 12:3 13:10 14:10 15:1 18:3 19:3 20:3 23:4 24:4 25:4 26:13 27:15 28:15 29:4 30:2 31:2 
-0.8981257272792368 1 1 0.9389569384349369 1 1 0.9500900269240646 0.9794777423146096 0.9847145639616672 6:3 7:3 8:6 9:6 10:3 11:3 12:3 13:3 14:3 15:3 16:3 17:9 18:9 20:4 21:4 22:4 23:13 24:13 25:13 26:2 27:2 28:2 
-0.5139457653871622 0.580130605708414 0.6020231537165721 0.5368550942215522 0.6252364067712589 0.5894729017614542 0.5436054047640822 0.5602609209015868 0.5638572837860307 2:3 3:3 4:6 5:6 6:3 7:3 8:3 9:3 10:3 11:3 12:3 13:13 14:13 20:2 21:2 22:2 23:4 24:4 25:4 26:13 27:13 28:13 29:2 30:2 31:2 32:2 
-0.1088377738734114 0.1255815163143248 0.1286024397007713 0.113327829465616 0.1312584111715593 0.124888319195704 0.115688197520118 0.1191808947617468 0.1203343398926624 3:1 4:1 5:1 6:3 7:3 8:6 9:6 10:3 11:3 12:3 13:3 14:3 15:3 16:3 17:9 18:9 21:4 22:4 23:4 24:13 25:13 26:13 27:2 28:2 29:2 32:3 
-0.1871360611565993 0.2147457492609007 0.2216713903395477 0.197873569274251 0.2312311404830901 0.2164076570917817 0.3492768229479747 0.2048185473348034 0.2055981057849886 6:3 7:3 8:6 9:6 10:5 11:3 12:3 13:3 14:4 15:4 16:3 17:9 18:9 19:1 22:5 23:5 24:4 25:13 26:13 27:13 28:2 29:3 30:2 32:2 
-0.1896149829210251 0.2150130709097893 0.2224749535920135 0.1979526500977399 0.2314279155455092 0.215981812130439 0.1998976925798557 0.20602570257703 0.2079309842033895 2:3 3:3 4:6 5:6 6:3 7:3 8:3 9:3 10:3 11:3 12:3 13:11 14:11 15:7 16:7 20:4 21:4 22:6 23:6 24:6 25:15 26:15 27:13 28:2 29:2 30:2 
-0.9015175770347657 1 1 0.9422110646878782 1 1 0.9534780959212418 0.9826489928670867 0.9883115597091509 3:3 4:3 5:6 6:6 7:3 8:3 9:3 10:3 11:3 12:3 13:3 14:9 15:10 16:10 17:9 23:2 24:6 25:6 26:6 27:15 28:15 29:15 30:4 31:4 32:4 
-0.3754124615861562 0.4228783811444878 0.4413210776638523 0.3929921702755576 0.4575831896682384 0.4308642797533592 0.3972655139381091 0.4100390617737993 0.4121714109143184 4:3 5:3 6:3 7:6 8:6 9:5 10:3 11:3 12:3 13:3 14:3 15:5 16:9 17:9 21:4 22:5 23:5 24:14 25:14 26:14 27:3 28:3 29:2 
-0.5644430530574446 0.6369952629405519 0.6631561276081422 0.5898192969137801 0.6891311604674608 0.6471219375746014 0.5964161151588875 0.615639601674963 0.6188688912859036 3:3 4:3 5:6 6:6 7:6 8:3 9:3 10:3 11:3 12:3 13:3 14:9 15:9 21:5 22:5 23:5 24:13 25:13 26:13 27:2 28:2 29:2 
-0.6690294296035398 0.7550944455957295 0.7862106350216104 0.6992083693498806 0.8156479169256208 0.7677671396406464 0.7079693597109547 0.7299201548115319 0.7335223889158247 2:3 3:3 4:10 5:10 6:4 7:3 8:3 9:3 10:3 11:3 12:3 13:9 14:9 21:4 22:4 23:4 24:13 25:13 26:13 27:2 28:2 29:4 30:2 31:2 32:3 
-0.4303999351720431 0.4852963877842272 0.5049132857228648 0.4496376219067405 0.524856973635093 0.4936340990220269 0.454038155976992 0.469464195520458 0.4715557372227099 4:3 5:3 6:6 7:6 8:3 9:3 10:3 11:3 12:3 13:3 14:3 15:9 16:9 17:2 21:5 22:5 23:4 24:13 25:13 26:13 27:2 28:2 29:2 
-0.6628533358801474 0.7636884787344969 0.7851028739588455 0.6926211445905492 0.8092019356602298 0.7609286820898691 0.7066404272385758 0.722944695134348 0.7270431652825097 4:3 5:8 6:8 7:6 8:3 9:3 10:5 11:5 12:3 13:3 14:3 15:9 16:9 17:3 20:4 21:4 22:5 23:5 24:5 25:13 26:13 27:13 28:3 29:3 30:3 
-0.1202091549672353 0.1365396658862996 0.1367225925958967 0.1246004098530762 0.1471497784417912 0.1385279008865657 0.1282288590271595 0.1318265991290412 0.1316898085403938 3:3 4:3 5:7 6:7 7:5 8:4 9:4 10:4 11:3 12:3 13:3 14:9 15:9 21:4 22:4 23:5 24:13 25:13 26:13 27:2 28:2 29:2 32:6 
-0.4010275140697762 0.4547755572199592 0.4715310552815837 0.4198657600246799 0.4882448374176969 0.4594172136868393 0.4245372634929182 0.4377619097234837 0.4391312658607372 1:3 2:3 3:6 4:6 5:3 6:3 7:3 8:3 9:3 10:3 11:3 12:9 13:9 14:2 22:4 23:4 24:4 25:13 26:13 27:13 28:2 29:3 30:3 
-0.5668062071498412 0.6434636727985686 0.6700876128423791 0.5900456054690217 0.6920230293595242 0.6514143555451293 0.5992515857154422 0.6191033038665933 0.6219077657438014 5:3 6:3 7:6 8:6 9:3 10:3 11:3 12:8 13:8 14:3 15:3 16:9 17:9 20:2 21:2 22:6 23:6 24:6 25:13 26:13 27:13 28:2 29:2 30:2 
-0.7882574719237718 0.9094772928926453 0.9267499882519523 0.8236691504568902 0.9610895908907213 0.904538420535876 0.8402381453879561 0.8594842010977898 0.8640913954868731 4:3 5:7 6:11 7:7 8:4 9:3 10:3 11:5 12:5 13:3 14:3 15:9 16:9 20:3 23:4 24:6 25:6 26:13 27:13 28:13 29:4 30:4 31:4 32:2 
-0.393940642811943 0.4463084899819163 0.4637576590050868 0.4120683992282276 0.4814111073232176 0.4519262961121389 0.4160363271570631 0.4291742619770688 0.4324893521414849 7:3 8:3 9:6 10:6 11:3 12:3 13:3 14:3 15:4 16:4 17:7 18:9 19:9 21:4 22:4 23:4 24:13 25:13 26:13 27:3 28:3 29:3 32:3 
-0.9042719030080485 1 1 0.9466395012482669 1 1 0.9560058133627577 0.9866156069257674 0.991834955132725 3:1 4:4 5:3 6:6 7:6 8:4 9:5 10:5 11:5 12:5 13:4 14:4 15:13 16:13 17:3 18:3 20:13 21:8 22:4 23:2 24:4 25:4 26:4 27:13 28:13 29:13 30:2 31:2 32:2 
-0.8820466122908072 1 1 0.9229537544317589 1 1 0.9329975991732976 0.9611139740203452 0.966539571063379 6:3 7:4 8:8 9:9 10:6 11:6 12:5 13:4 14:4 15:4 16:3 17:9 18:9 20:4 21:2 22:3 23:6 24:5 25:7 26:13 27:13 28:13 29:4 30:2 31:2 
-0.5689210823105875 0.6469070163243953 0.6684018783788354 0.595669274934708 0.6943935864708247 0.6530144361366222 0.601868234685173 0.6206090393859918 0.6248858358851503 1:3 2:3 3:7 4:7 5:3 6:3 7:3 8:3 9:3 10:3 11:3 12:9 13:9 14:5 21:4 22:4 23:4 24:13 25:14 26:14 27:5 28:3 29:3 
-0.2804369032092419 0.3191981305410109 0.3292646736829816 0.2926279568205072 0.3418229137584363 0.321669298004421 0.29607172967953 0.3052761442368722 0.3075552840967698 2:3 3:3 4:6 5:6 6:3 7:3 8:3 9:3 10:3 11:3 12:3 13:9 14:9 15:8 22:5 23:5 24:5 25:14 26:14 27:14 28:3 29:3 30:2 
-0.3464387330381272 0.3929397857692121 0.4081463107974443 0.3628915992174945 0.4232915350115182 0.3980981224884685 0.3672951307486163 0.3779311959660651 0.3805896775474839 3:4 4:4 5:6 6:6 7:3 8:3 9:3 10:3 11:3 12:4 13:6 14:10 15:9 18:2 19:2 21:4 22:6 23:6 24:13 25:13 26:13 27:2 28:3 29:3 32:5 
-0.05757021954565716 0.06114004048623322 0.06759763461936182 0.061090988072422 0.07034846544358261 0.06666371830793016 0.06124690603204953 0.06333507780195111 0.06479406452846893 2:3 3:3 4:6 5:6 6:3 7:3 8:3 9:3 10:3 11:3 12:3 13:9 14:9 22:4 23:4 24:4 25:13 26:13 27:13 28:2 29:2 30:2 
-0.8416160823369663 0.9649132519413286 0.9898135451536846 0.8796849044527134 1 0.9657856342765593 0.8942420677888346 0.9176838101059541 0.9225713605987116 4:6 5:12 6:7 7:6 8:6 9:3 10:5 11:5 12:3 13:3 14:3 15:5 16:9 17:9 20:2 21:2 22:7 23:7 24:4 25:13 26:13 27:14 28:4 29:6 30:6 31:2 32:2 
-0.5024251389138283 0.5684156578542229 0.5911249782853835 0.5254120403369681 0.6126631631810067 0.5777125906261703 0.5314609056004355 0.5478687682026285 0.5503217321013105 2:3 3:5 4:6 5:7 6:4 7:4 8:4 9:4 10:4 11:3 12:3 13:9 14:9 20:6 23:4 24:5 25:5 26:13 27:13 28:13 29:2 30:2 31:2 
-0.1833762671349337 0.2023802250450651 0.2154434361696851 0.1914434566701666 0.2247388292003784 0.2116988457262409 0.1939609808088223 0.2000920978562528 0.2024752346482009 1:3 2:3 3:6 4:6 5:3 6:3 7:3 8:3 9:3 10:3 11:3 12:9 13:9 22:4 23:4 24:4 25:13 26:13 27:13 28:2 29:2 30:2 
-0.5245205265516699 0.5930444202043375 0.6166897508205977 0.5487355541653889 0.6399876605345274 0.6032290928767503 0.5551185585766741 0.5724041391047627 0.57529633599976 2:3 3:3 4:6 5:6 6:3 7:3 8:3 9:3 10:3 11:3 12:3 13:11 14:13 15:6 16:6 20:3 21:3 22:6 23:6 24:6 25:15 26:13 27:13 28:2 29:2 30:2 31:2 32:2 
-0.9040518914694966 1 1 0.9448675898418492 1 1 0.9557685963489809 0.9863082013819183 0.9913060653815802 1:3 2:6 3:6 4:6 5:3 6:3 7:3 8:3 9:3 10:3 11:5 12:10 13:11 14:2 15:2 16:2 17:8 18:6 20:8 21:8 22:5 23:13 24:13 25:13 26:4 27:4 28:4 29:2 30:2 31:5 32:4 
-0.2879326881811953 0.3312793172929253 0.3395758760395776 0.3116079800565175 0.3503780128767413 0.3298991652259904 0.3050518462078191 0.3132751469223463 0.315295008651345 5:3 6:3 7:6 8:6 9:3 10:3 11:3 12:7 13:7 14:3 15:6 16:9 17:9 20:2 21:2 22:6 23:6 24:4 25:13 26:13 27:13 28:3 29:3 30:3 
-0.904399274666616 1 1 0.9451453974361047 1 1 0.9560977912029843 0.986405126346233 0.9915809622842534 7:3 8:3 9:6 10:6 11:3 12:3 13:3 14:3 15:3 16:3 17:3 18:9 19:9 24:4 25:4 26:4 27:13 28:13 29:13 30:2 31:2 32:2 
-0.02571443702960485 0 0 0 0 0 0 0 0 4:3 5:3 6:6 7:6 8:3 9:3 10:3 11:3 12:3 13:3 14:3 15:9 16:9 23:4 24:4 25:4 26:13 27:13 28:13 29:2 30:2 31:2 
-0.2774007881547029 0.3115427731435185 0.3271394900073386 0.2908426655118156 0.3387956512719318 0.3189836037608422 0.2943417573265138 0.3026985655887561 0.3050712527156624 2:1 3:1 5:3 6:3 7:6 8:6 9:3 10:3 11:4 12:4 13:3 14:3 15:3 16:9 17:9 18:2 21:4 22:4 23:4 24:13 25:14 26:14 27:2 28:2 29:2 32:4 
-0.8767701579568817 0.9895994720833283 1 0.9201630863397702 1 1 0.9270349666008628 0.9559031359288707 0.9616481883175251 3:3 4:3 5:6 6:6 7:6 8:6 9:8 10:13 11:8 12:3 13:3 14:9 15:9 20:2 21:2 22:6 23:6 24:6 25:13 26:13 27:13 28:6 29:6 30:6 31:2 32:2 
-0.5278521396427441 0.5983533800901891 0.620589343521235 0.5518854905570629 0.6436620185716984 0.6061258263719074 0.5575432726020535 0.575271958400017 0.5786146954406019 2:3 3:3 4:6 5:6 6:3 7:3 8:3 9:3 10:3 11:3 12:4 13:11 14:11 20:3 21:2 22:4 23:4 24:4 25:13 26:13 27:13 28:2 29:2 30:2 
-0.5503817806161653 0.6222914680148589 0.6465484921890291 0.5859820895121868 0.670948228250581 0.6317253566161712 0.5821039611197902 0.5998539374938893 0.603478029441921 4:3 5:3 6:6 7:6 8:3 9:3 10:6 11:6 12:3 13:3 14:5 15:9 16:9 17:3 21:2 22:7 23:8 24:5 25:14 26:13 27:13 28:2 29:2 30:2 
-0.8943708597031737 1 1 0.9348778799468251 1 1 0.9453911953599404 0.9752079532921023 0.9805733956042939 4:2 5:5 6:7 7:9 8:11 9:5 10:3 11:3 12:3 13:4 14:4 15:3 16:9 17:12 18:9 20:3 21:5 22:5 23:5 24:14 25:14 26:14 27:5 28:5 29:5 30:2 31:4 32:8 
-0.5559649365745217 0.633141016576145 0.6531402854913526 0.5810039702596416 0.6787907950427415 0.637676642628915 0.5881062313262966 0.6062487485850308 0.6092668234070802 3:3 4:3 5:6 6:6 7:3 8:3 9:3 10:6 11:6 12:3 13:6 14:9 15:9 22:4 23:4 24:4 25:13 26:13 27:13 28:5 29:5 30:5 
-0.7616829362976918 0.8618343141167038 0.8953915838915036 0.7967968121219895 0.9291207138724578 0.8741402520631317 0.8054713917516886 0.8305976315564271 0.8353486702447951 1:3 2:3 3:6 4:6 5:3 6:3 7:3 8:3 9:3 10:3 11:3 12:12 13:13 14:6 15:5 20:2 21:2 22:2 23:4 24:4 25:4 26:13 27:14 28:15 29:4 30:4 31:4 32:3 
-0.8851686968831311 0.9988479777228206 1 0.9249086845965122 1 1 0.9359213479551495 0.9649803141527218 0.9702588673562774 7:3 8:3 9:7 10:7 11:4 12:8 13:8 14:4 15:3 16:7 17:7 18:9 19:9 21:4 22:4 23:4 24:13 25:13 26:13 27:2 28:6 29:6 30:4 31:4 32:6 
-0.5027167813199968 0.5689895530570619 0.590875496835971 0.5255118272433114 0.6135315621814385 0.573180310695808 0.5321155345935278 0.5485834593924821 0.5513488727696188 7:3 8:3 9:6 10:6 11:3 12:3 13:3 14:3 15:3 16:3 17:3 18:9 19:9 21:4 22:4 23:4 24:13 25:13 26:13 27:2 28:2 29:2 
-0.4396677668915142 0.4963345143816987 0.5196865034013349 0.4607638392298695 0.5369422973391647 0.5067832554109303 0.4663068491737984 0.4795893281314699 0.4838597238526287 4:4 5:4 6:6 7:6 8:3 9:3 10:3 11:3 12:3 13:4 14:4 15:9 16:9 21:4 22:4 23:4 24:13 25:13 26:13 27:2 28:2 29:2 32:4 
-0.8991139523028237 1 1 0.9418201493178534 1 1 0.9527145108557544 0.9822919170749761 0.9873804510596703 4:3 5:3 6:6 7:6 8:3 9:3 10:3 11:3 12:3 13:3 14:3 15:9 16:9 24:4 25:4 26:4 27:13 28:13 29:13 30:2 31:2 32:2 
-0.3521723755328629 0.4092021450529655 0.4152661206489259 0.3700788495227441 0.4306953899138724 0.4057610335285585 0.3711456848558578 0.3854176357870259 0.3873409584212943 7:3 8:5 9:6 10:6 11:3 12:3 13:3 14:3 15:3 16:3 17:3 18:9 19:9 22:5 23:5 24:4 25:13 26:13 27:13 28:2 29:2 30:2 
-0.6559571513616561 0.7394598766351241 0.7714466405823217 0.685417495702207 0.8001387455969182 0.7539564355136335 0.6940430569480992 0.7159121127946041 0.7194132510494763 1:3 2:3 3:3 4:6 5:6 6:3 7:3 8:3 9:3 10:3 11:3 12:3 13:11 14:11 15:8 16:8 20:4 21:4 22:6 23:6 24:6 25:16 26:16 27:16 28:2 29:2 30:2 
-0.5583047000561052 0.6348193856841944 0.6563386448768838 0.587193729628234 0.6820498937114364 0.6418110141182706 0.5914224726488234 0.6090145171934998 0.6123441911737839 2:3 3:3 4:6 5:6 6:3 7:3 8:3 9:3 10:3 11:3 12:3 13:11 14:11 22:2 23:2 24:4 25:4 26:4 27:13 28:13 29:13 30:2 31:2 32:2 
-0.8551184771875025 0.9647750901495935 1 0.8939252277493408 1 0.9809369384020739 0.9037762455311145 0.932537491301451 0.9373315664653354 1:3 2:6 3:6 4:6 5:3 6:3 7:3 8:3 9:3 10:3 11:3 12:9 13:9 16:10 17:10 20:2 21:7 22:7 23:7 24:15 25:15 26:15 27:4 28:4 29:2 32:2 
-0.08963957167187929 0.09423609998274503 0.1028752684223276 0.09208785830574641 0.1073374906201674 0.1013582464468403 0.09314745026083213 0.09729443552188058 0.09733884427511327 7:3 8:3 9:6 10:6 11:3 12:3 13:3 14:3 15:3 16:3 17:3 18:9 19:9 22:4 23:4 24:4 25:13 26:13 27:13 28:2 29:2 30:2 
-0.4483489514117485 0.5067744922361125 0.5286784446521819 0.4686135775466034 0.5485099433630341 0.5148338617457343 0.4761005284880694 0.4884180800873024 0.4917801628724283 7:3 8:3 9:6 10:6 11:6 12:3 13:3 14:3 15:3 16:3 17:3 18:9 19:9 22:5 23:5 24:5 25:13 26:13 27:13 28:2 29:2 30:2 
-0.8350608069180087 0.9426366224221565 0.9825917485774587 0.8733592861997584 1 0.9581945592399539 0.9362150102570624 0.9102406818222423 0.9154731552791456 6:3 7:3 8:6 9:6 10:7 11:11 12:7 13:3 14:4 15:4 16:3 17:9 18:9 20:2 21:2 22:6 23:6 24:4 25:13 26:13 27:13 28:4 29:4 30:4 31:2 32:2 
-0.4512565373679104 0.5090810024511605 0.5296715200321506 0.4719889178001152 0.5508658784741931 0.5163746498995032 0.4776461505783847 0.4908236587363526 0.494602172036461 1:3 2:3 3:3 4:6 5:6 6:3 7:3 8:3 9:3 10:3 11:3 12:3 13:12 14:13 15:9 17:6 18:6 20:2 21:3 22:3 23:3 24:5 25:5 26:5 27:17 28:17 29:16 30:4 31:4 32:4 
-0.8594217738252112 0.9696477767116395 1 0.8980710666945737 1 0.9862162184410558 0.9082383308274725 0.9368532683283541 0.9420475505248012 1:3 2:7 3:7 4:6 5:3 6:3 7:3 8:3 9:3 10:3 11:3 12:10 13:10 16:8 17:9 18:7 20:2 21:5 22:5 23:5 24:15 25:15 26:16 27:5 28:5 29:5 30:3 31:3 32:4 
-0.3224041464655976 0.364831307512576 0.3767223698148114 0.33621575594785 0.3934855541463393 0.3695719125394711 0.3401681551398273 0.3523262473292292 0.3525720577846936 5:3 6:3 7:6 8:6 9:3 10:3 11:3 12:3 13:3 14:3 15:3 16:9 17:9 21:4 22:4 23:4 24:13 25:13 26:13 27:2 28:2 29:2 
-0.8889888809633613 1 1 0.9485044904952281 1 1 0.9407915226467017 0.9699048138180405 0.974936423468722 1:3 2:3 3:6 4:6 5:3 6:3 7:3 8:3 9:3 10:3 11:13 12:13 13:12 14:8 20:2 21:3 22:3 23:4 24:6 25:6 26:6 27:14 28:14 29:13 30:3 31:4 32:4 
-0.8993076398318619 1 1 0.9398235824221362 1 1 0.9504135938565121 0.9806254726231036 0.9859253646454823 1:3 2:3 3:6 4:6 5:3 6:3 7:3 8:3 9:3 10:3 11:3 12:9 13:9 17:11 18:11 22:6 23:6 24:6 25:15 26:15 27:15 28:4 29:4 30:4 31:2 32:2 
-0.4702891374559507 0.5304826523749889 0.5530997305034786 0.4921025770524416 0.5735478671318366 0.541113464171749 0.4962880618027358 0.5139280662922302 0.5155707741455599 1:3 2:3 3:3 4:6 5:6 6:3 7:3 8:3 9:3 10:3 11:3 12:3 13:13 14:13 15:9 17:6 18:6 20:3 21:3 22:3 23:3 24:5 25:5 26:5 27:17 28:17 29:16 30:4 31:4 32:4 
-0.2837968981699081 0.3430025200923609 0.3468543329196427 0.2990656139026169 0.3469109226176114 0.3265280972997669 0.293442229046545 0.3101778755444002 0.3118859503618468 6:3 7:6 8:6 9:6 10:3 11:3 12:5 13:5 14:3 15:3 16:3 17:9 18:9 20:2 21:2 22:5 23:5 24:5 25:13 26:13 27:13 28:2 29:2 30:2 
-0.1476890187231093 0.1629792186531915 0.172605553646474 0.1555029583852832 0.1800776853855788 0.1689301618463262 0.1559275899359715 0.1606097680075769 0.1627577560362068 2:3 3:3 4:6 5:6 6:4 7:4 8:3 9:3 10:3 11:4 12:4 13:10 14:10 20:6 23:4 24:4 25:4 26:13 27:13 28:13 29:2 30:2 31:2 
-0.2285107562459808 0.2621053320338989 0.2713362337392675 0.2406368281043825 0.2813317922801931 0.2633178869475336 0.2413853119785271 0.2492915421949337 0.2506473061812953 2:3 3:3 4:6 5:6 6:3 7:3 8:3 9:3 10:3 11:3 12:4 13:12 14:12 15:2 16:2 20:4 21:3 22:2 23:4 24:4 25:4 26:13 27:13 28:13 29:2 30:2 31:2 32:2 
-0.7560763775736221 0.8590775979750185 0.8885222608104226 0.7902845082503507 0.9235413418968094 0.8681686548213561 0.7995352413438109 0.8245469371407499 0.828964882020939 1:3 2:6 3:6 4:6 5:3 6:3 7:3 8:3 9:4 10:4 11:4 12:10 13:9 16:3 17:5 18:2 20:2 21:7 22:7 23:5 24:13 25:13 26:13 27:2 28:2 29:2 31:2 32:6 
-0.6764795480807293 0.7651982777944139 0.7953215744583937 0.7076299643804178 0.825375773900526 0.7771888624137096 0.7161636843186915 0.7383626250836985 0.7421580253649565 2:3 3:6 4:7 5:7 6:7 7:4 8:6 9:6 10:3 11:3 12:3 13:9 14:9 21:6 22:6 23:6 24:13 25:13 26:13 27:2 28:4 29:4 30:2 32:4 
-0.6801217482126366 0.7721907896014622 0.7994453728369426 0.7109571608095379 0.8296181398116753 0.7808094616753488 0.7190439683682786 0.7421625385465945 0.7462545557035295 5:3 6:3 7:6 8:6 9:6 10:6 11:3 12:3 13:6 14:6 15:3 16:9 17:9 20:2 21:6 22:4 23:4 24:13 25:13 26:13 27:2 28:2 29:2 30:2 31:2 32:4 
-0.6347995741598541 0.7135446741660627 0.7457867629192766 0.6637592486061215 0.7726860965806284 0.7275203947648314 0.6699076753326889 0.6914677708914963 0.6948937474199374 3:3 4:3 5:3 6:7 7:7 8:3 9:3 10:3 11:4 12:4 13:4 14:4 15:9 16:9 20:6 23:4 24:4 25:4 26:14 27:14 28:14 29:2 30:2 31:2 
-0.897587325934369 1 1 0.9393564861197236 1 1 0.9489221716911079 0.9788885233282056 0.984696344864521 1:3 2:3 3:6 4:6 5:3 6:3 7:3 8:3 9:4 10:4 11:4 12:10 13:9 14:4 15:12 16:12 20:4 21:3 22:3 23:7 24:7 25:6 26:15 27:15 28:15 29:4 30:4 31:4 32:2 
-0.4268785977936738 0.4829977360365135 0.5013508851449536 0.4353617722995375 0.5203333430975549 0.4900952069254267 0.4512411840524429 0.4660183193182156 0.4688453723067755 4:3 5:3 6:6 7:6 8:3 9:3 10:3 11:3 12:3 13:3 14:3 15:9 16:9 22:4 23:4 24:4 25:13 26:13 27:13 28:2 29:2 30:2 
-0.6481294598186214 0.7383225073852791 0.7616490873214868 0.6773291946824647 0.7907540211377055 0.7440900418821895 0.6855370276494986 0.7066457811038973 0.7103555784024412 1:1 2:1 3:1 5:3 6:3 7:6 8:6 9:3 10:3 11:5 12:6 13:5 14:3 15:5 16:11 17:9 18:2 21:4 22:6 23:7 24:13 25:13 26:14 27:3 28:2 29:2 31:2 32:7 
-0.9009103272626415 1 1 0.9418998082383646 1 1 0.9528133134206448 0.9825073100089941 0.9879930631876582 2:9 3:9 7:3 8:3 9:6 10:6 11:3 12:3 13:3 14:3 15:3 16:3 17:5 18:9 19:9 20:2 21:2 22:7 23:7 24:6 25:15 26:15 27:15 28:4 29:2 30:2 
-0.2863345240049198 0.3223043184541549 0.3364708697018229 0.2996077826204868 0.3500759978474269 0.3296605077926072 0.3024628619295575 0.3123843912008203 0.3141702044699535 2:3 3:3 4:3 5:6 6:6 7:5 8:3 9:3 10:3 11:3 12:3 13:3 14:9 15:9 22:5 23:5 24:4 25:14 26:14 27:14 28:2 29:2 30:2 
-0.2257436995571906 0.2825952929446066 0.2971322192809844 0.2607037684457117 0.3055979985514987 0.2885747932419594 0.2648886515644983 0.2726939596172594 0.2746842013421551 4:3 5:3 6:6 7:6 8:3 9:3 10:3 11:3 12:3 13:3 14:3 15:9 16:9 23:4 24:4 25:4 26:13 27:13 28:13 29:2 30:2 31:2 
-0.3015871509671368 0.3431341401937347 0.3558153790036814 0.3161017916923962 0.3686884229631081 0.3772558580247517 0.319941262234989 0.3290918828550518 0.3319519148555338 7:4 8:5 9:7 10:6 11:3 12:3 13:4 14:4 15:4 16:3 17:3 18:9 19:9 21:4 22:4 23:5 24:13 25:13 26:13 27:2 28:2 29:2 32:6 
-0.9008701884959268 1 1 0.9420758132779754 1 1 0.9546256873252004 0.9827572455892958 0.988611332884643 2:4 3:10 4:9 5:6 6:3 7:6 8:9 9:9 10:3 11:3 12:3 13:9 14:9 20:3 21:3 22:8 23:7 24:7 25:13 26:13 27:13 28:6 29:4 30:4 32:2 
-0.08744428542809798 0.09596778985528746 0.1018742741508392 0.08684826939710957 0.1068434261857778 0.1010335155972423 0.09214966280227568 0.09472108823593661 0.09478290442247772 3:3 4:3 5:6 6:6 7:3 8:3 9:3 10:3 11:3 12:3 13:3 14:9 15:9 22:4 23:4 24:4 25:13 26:13 27:13 28:2 29:2 30:2 
-0.8959338106578847 1 1 0.936260283762966 1 1 0.9467199570772376 0.9765019549307685 0.9820861131395262 5:2 6:5 7:8 8:6 9:7 10:6 11:4 12:5 13:5 14:5 15:5 16:4 17:9 18:9 19:9 20:12 21:8 23:2 24:7 25:7 26:6 27:13 28:13 29:13 30:3 31:3 32:2 
-0.4437833255110842 0.4996318259588047 0.5210362572109238 0.4628787523718266 0.5398930073806224 0.5085016674667505 0.4691784909240385 0.4837686093100809 0.485535564351756 1:3 2:3 3:6 4:6 5:3 6:3 7:3 8:3 9:3 10:3 11:3 12:9 13:9 14:4 21:5 22:5 23:5 24:14 25:13 26:13 27:2 28:2 29:2 
-0.1181314434730214 0.1385229381847432 0.1394795755874813 0.1221073118377432 0.1440404628584193 0.1349743777700742 0.1242717926137382 0.1286569654598311 0.1288866802445964 4:1 5:4 6:3 7:6 8:6 9:5 10:3 11:3 12:3 13:4 14:5 15:8 16:9 17:9 21:5 22:6 23:7 24:13 25:13 26:13 27:3 28:3 29:2 32:4 
-0.5606461432203829 0.6331406243130124 0.6580035208569389 0.5868727889599712 0.6833611914225127 0.6432701435333618 0.5923967491831923 0.6115015701828318 0.6147131248079079 6:3 7:3 8:6 9:6 10:3 11:3 12:3 13:3 14:3 15:3 16:3 17:9 18:9 21:4 22:4 23:4 24:13 25:13 26:13 27:2 28:2 29:2 
-0.4325122431300972 0.4928323579191479 0.5088551260446232 0.4561563322832204 0.529551441716539 0.4979700716687824 0.4591747082014623 0.4744832145053052 0.4763476433105549 4:3 5:3 6:6 7:6 8:5 9:3 10:3 11:3 12:3 13:3 14:3 15:9 16:9 23:5 24:5 25:4 26:13 27:13 28:13 29:2 30:2 31:2 
-0.226469873605233 0.2617143640664186 0.2657725181790697 0.2356860163639523 0.276322011526432 0.2590050473237923 0.2389699491320402 0.2474522411073008 0.2478810648913211 5:3 6:3 7:6 8:6 9:3 10:3 11:3 12:3 13:3 14:4 15:6 16:9 17:9 22:4 23:5 24:5 25:13 26:13 27:13 28:4 29:2 30:2 
-0.8784408490627218 -0.9733798278916488 1 0.9197696104940406 1 1 0.9305255403903247 0.9612591475794611 0.9659907356013281 2:6 3:8 4:6 5:3 6:3 7:3 8:3 9:4 10:4 11:4 12:5 13:11 14:11 15:8 16:1 17:12 18:12 19:3 20:6 21:9 22:9 23:10 24:11 25:12 26:14 27:12 28:8 29:4 30:3 31:3 32:6 
-0.8184343608115767 -0.9079731575101845 0.9963499830679076 0.8569482631897285 0.9961276139979916 0.942304403321782 0.8731044866816227 0.8956642511859096 0.9002955319088654 3:1 4:7 5:7 6:9 7:6 8:4 9:3 10:4 11:6 12:5 13:4 14:4 15:4 16:10 17:10 20:5 21:7 22:7 23:8 24:10 25:10 26:12 27:9 28:7 29:2 32:7 
-0.4768381147184414 -0.5290272402405933 0.5568550201489306 0.4992826471883223 0.5798963072615376 0.5488036321028713 0.506731135444868 0.5214268944641348 0.5244283726654958 4:6 5:6 6:9 7:6 8:4 9:3 10:3 11:3 12:4 13:5 14:4 15:4 16:10 17:10 23:4 24:7 25:8 26:8 27:9 28:11 29:12 30:9 31:7 32:2 
-0.7534744132017027 -0.831314174153303 0.9074077651012873 0.7858318950112263 0.9184518300776168 0.8635188525252967 0.8045103880972963 0.8216244536616226 0.8268914084638496 3:10 4:11 5:6 6:5 7:3 8:3 9:3 10:4 11:8 12:8 13:4 14:10 15:10 22:5 23:7 24:7 25:7 26:8 27:9 28:12 29:12 30:10 31:6 32:2 
-0.3057706253930304 -0.3679719256082608 0.3630000708285707 0.3208648440316956 0.3719607808839617 0.3528280703558137 0.3433734967126635 0.3352937240738153 0.3372872956802329 2:6 3:8 4:6 5:4 6:3 7:3 8:3 9:4 10:4 11:4 12:4 13:10 14:10 21:4 22:6 23:6 24:7 25:8 26:10 27:11 28:9 29:6 30:2 
-0.5980718220049857 -0.6635864940800413 0.7062137986006094 0.6234445627761993 0.7251228897122171 0.6872442337168455 0.6671534282963125 0.6517421575994065 0.655529079417952 1:6 2:8 3:6 4:3 5:3 6:3 7:3 8:5 9:5 10:5 11:5 12:10 13:10 14:1 15:1 16:1 17:1 18:1 20:5 21:6 22:6 23:7 24:8 25:9 26:11 27:9 28:6 29:2 32:8 
-0.789183396482936 -0.8744511256798135 0.9344430276915573 0.8261691220016548 0.9602249689475236 0.9073824006152202 0.8349737895619963 0.8634386694557382 0.8678094765423189 6:6 7:6 8:8 9:9 10:4 11:4 12:3 13:3 14:4 15:4 16:5 17:9 18:10 19:10 20:2 23:4 24:8 25:8 26:9 27:10 28:11 29:13 30:10 31:7 32:3 
-0.8754752527425668 -0.9782257136849022 1 0.9158525761831887 1 1 0.9287477681834889 0.9591472238973527 0.9669557986972643 2:6 3:8 4:10 5:10 6:3 7:5 8:5 9:4 10:4 11:4 12:4 13:10 14:10 20:7 21:9 22:6 23:7 24:8 25:10 26:11 27:9 28:6 29:4 30:2 31:2 32:2 
-0.7846332365174018 -0.8706371479089093 1 0.8214694966695485 0.9576147634188708 0.9029791550673475 0.8414440830098806 0.8590830398503282 0.8679888245911598 4:6 5:13 6:13 7:3 8:3 9:3 10:7 11:7 12:4 13:4 14:4 15:10 16:10 20:2 21:2 22:4 23:6 24:7 25:8 26:10 27:9 28:11 29:9 30:9 31:6 32:4 
-0.4369944409922938 -0.4849478812609201 0.5261441311499784 0.459439274850874 0.5378313154400952 0.5050536226545593 0.479919877766322 0.4797890459736358 0.4809313503786151 3:6 4:8 5:6 6:3 7:3 8:3 9:3 10:5 11:5 12:4 13:4 14:9 15:9 24:4 25:6 26:6 27:8 28:8 29:9 30:11 31:10 32:6 
-0.05611520733712468 -0.0548722228251501 0.1217357128818368 0.05782093216280448 0.06550827959198688 0.06668754328233034 0.03783812856254996 0.06005002263678073 0.05919955857855115 1:7 2:8 3:6 4:3 5:3 6:3 7:5 8:4 9:4 10:4 11:4 12:10 13:10 20:4 21:6 22:6 23:7 24:9 25:9 26:11 27:10 28:7 29:2 
-0.8308992646960735 -0.920645146664195 0.9837519974926344 0.8696545972876612 1 0.9551449522574289 0.8802353687615437 0.9090052601379743 0.9136566256064362 1:6 2:9 3:6 4:3 5:3 6:3 7:3 8:4 9:4 10:6 11:5 12:10 13:10 16:2 17:7 18:5 20:2 21:2 22:5 23:7 24:6 25:7 26:8 27:11 28:14 29:11 30:9 31:4 
-0.8643852138942616 -0.9566404335129369 1 0.9038269408865094 1 1 0.9140597986801331 0.9458771056612063 0.9542726120338947 7:6 8:9 9:8 10:4 11:3 12:11 13:10 14:5 15:4 16:4 17:4 18:10 19:10 20:2 21:6 22:8 23:9 24:10 25:10 26:11 27:11 28:9 29:7 30:2 32:3 
-0.778679724083494 -0.8606780202622166 0.9348432782934898 0.8116253159832436 0.943599252392445 0.8931584662664759 0.8215373328319889 0.852330198932503 0.8726455370379668 1:6 2:8 3:6 4:5 5:3 6:3 7:9 8:11 9:8 10:4 11:4 12:10 13:10 15:1 16:1 20:4 21:2 23:5 24:10 25:9 26:9 27:9 28:9 29:11 30:9 31:8 32:4 
-0.308620915426944 -0.3353485397266428 0.4078848272562434 0.3197579210913613 0.38041726450562 0.35338696259313 0.3322216748927328 0.3348365960124803 0.3404650736661071 3:2 4:7 5:9 6:7 7:5 8:3 9:4 10:4 11:4 12:4 13:4 14:4 15:10 16:10 17:2 21:6 22:8 23:7 24:7 25:9 26:10 27:11 28:10 29:9 30:2 
-0.4503448730594082 -0.5021855907363948 0.6033417490832034 0.4713872275221225 0.5481173916125913 0.5179789091218676 0.4904864507536649 0.4926331715781513 0.4959247009676627 5:7 6:10 7:11 8:4 9:3 10:3 11:3 12:4 13:5 14:4 15:4 16:10 17:10 20:2 21:2 22:4 23:6 24:8 25:8 26:9 27:10 28:11 29:10 30:6 31:2 
-0.1919974993076197 -0.2126305910435437 0.2285333872095558 0.2020203464475793 0.2325107828556265 0.2204953659650264 0.2189499348476634 0.2106765723274258 0.211810112103336 5:8 6:8 7:6 8:3 9:3 10:3 11:3 12:5 13:4 14:4 15:4 16:10 17:10 21:5 22:6 23:6 24:8 25:8 26:9 27:11 28:10 29:6 30:2 
-0.2275937509213007 -0.2545570850329953 0.2232440381919408 0.2390025392452694 0.2746571029859212 0.26153432872973 0.2308579200360505 0.2483308544108457 0.2496541667580624 1:7 2:8 3:6 4:3 5:3 6:3 7:3 8:4 9:6 10:4 11:4 12:10 13:10 21:4 22:6 23:7 24:7 25:8 26:9 27:11 28:11 29:6 30:2 
-0.7699941907767517 -0.8606442637164644 0.9030582946371856 0.8061204378635897 0.9358420423870704 0.8850309728730705 0.8184261101351518 0.8423253237984993 0.8467881402186495 1:6 2:7 3:5 4:3 5:3 6:3 7:4 8:5 9:5 10:4 11:7 12:9 13:10 14:4 15:2 16:2 20:6 21:7 22:8 23:8 24:10 25:12 26:10 27:8 28:3 31:3 32:4 
-0.5835489954400734 -0.6469070994641842 0.7174808547812068 0.611051131421533 0.7108789423419296 0.6712080303732427 0.6200558661327185 0.637903303806677 0.6424166738090114 3:2 4:2 5:2 6:6 7:8 8:6 9:3 10:3 11:3 12:4 13:5 14:4 15:4 16:4 17:10 18:10 22:4 23:6 24:6 25:9 26:9 27:9 28:11 29:11 30:9 31:2 
-0.7448200405003409 -0.8370686527417266 0.9099255600025816 0.7791635380769493 0.9268483434155993 0.8570620981603743 0.8148878776820671 0.8150056541970204 0.819605243060439 5:11 6:12 7:6 8:5 9:7 10:5 11:3 12:4 13:4 14:4 15:4 16:10 17:10 20:2 21:6 22:6 23:6 24:9 25:10 26:9 27:11 28:10 29:8 30:4 31:2 32:2 
-0.162612915857787 -0.1909267879684047 0.1376532788205593 0.1700868249428609 0.1927442562913346 0.1848911258392819 0.1790309681876147 0.1788260918616165 0.1762491215196737 6:6 7:8 8:9 9:3 10:3 11:3 12:3 13:4 14:4 15:4 16:4 17:10 18:10 21:4 22:6 23:7 24:8 25:9 26:9 27:11 28:9 29:6 30:2 
-0.7152701904498339 -0.7923379278932963 0.8431351734765588 0.7486573673965424 0.8708422087658948 0.8225566566296264 0.7577171986460441 0.7823940311833862 0.7864248625566993 2:6 3:8 4:6 5:3 6:3 7:3 8:3 9:4 10:4 11:4 12:4 13:10 14:10 15:6 16:6 17:7 18:7 19:5 20:2 21:6 22:8 23:8 24:9 25:10 26:11 27:13 28:12 29:9 30:5 31:3 32:3 
-0.2991448827380545 -0.346805423251938 0.289838465830393 0.3148580000853409 0.3634401277854354 0.3415462217882527 0.3188912309203141 0.3266021247742013 0.327804772765564 1:6 2:8 3:6 4:3 5:3 6:3 7:3 8:4 9:4 10:5 11:4 12:10 13:10 20:4 21:6 22:6 23:7 24:8 25:9 26:12 27:9 28:6 29:2 
-0.1297492966277257 -0.1345187904429603 0.1824582829341166 0.1249706672610779 0.1501196072811298 0.1369038564248193 0.1336309832845858 0.1309330802939115 0.1312953324384267 1:2 2:7 3:8 4:7 5:3 6:3 7:3 8:3 9:4 10:4 11:4 12:4 13:10 14:10 15:3 22:5 23:6 24:6 25:7 26:9 27:10 28:12 29:10 30:7 31:3 
-0.4919404960874363 -0.5369889784476515 0.7038088223053084 0.5108213442696782 0.5972101582050294 0.5665392042304338 0.5140838758646334 0.5333654592569102 0.5427384120020586 3:6 4:8 5:6 6:3 7:3 8:5 9:6 10:6 11:6 12:5 13:7 14:10 15:10 20:2 21:2 22:4 23:9 24:8 25:7 26:9 27:10 28:12 29:10 30:6 31:2 
-0.2491711839072637 -0.2761708689383108 0.237335647133063 0.2613309498003129 0.2970098465911053 0.2816385265165207 0.2493135173373864 0.2723551902725296 0.2729830697861132 3:3 4:8 5:8 6:6 7:4 8:3 9:3 10:3 11:4 12:4 13:4 14:4 15:9 16:9 24:5 25:6 26:6 27:8 28:9 29:11 30:11 31:10 32:6 
-0.1500037694156596 -0.178652041441474 0.1858723400781442 0.1559781278240338 0.1851304237570243 0.1725599461468951 0.1577346596797471 0.1626123910902648 0.1654488828941769 5:6 6:8 7:6 8:5 9:3 10:3 11:3 12:4 13:4 14:4 15:5 16:10 17:10 21:6 22:7 23:6 24:7 25:8 26:9 27:11 28:9 29:6 30:2 
-0.6908934112957877 -0.7644847086850521 0.8191736687997178 0.7230050812483635 0.8396444914572877 0.7942300087889026 0.7277229632056068 0.7553743093458271 0.7603367798259109 1:6 2:8 3:6 4:3 5:3 6:3 7:4 8:5 9:5 10:5 11:11 12:12 13:11 14:1 15:1 20:5 21:7 22:6 23:7 24:8 25:10 26:12 27:10 28:7 29:3 30:2 32:7 
-0.4991157381491058 -0.5561549639946478 0.5809570980089026 0.5237953033634504 0.6068966648392394 0.5738954053530087 0.5466028621755907 0.5461714642913187 0.549111792997418 3:6 4:8 5:6 6:3 7:3 8:3 9:3 10:4 11:4 12:6 13:4 14:10 15:10 16:5 22:4 23:7 24:6 25:7 26:8 27:10 28:13 29:10 30:7 31:3 
-0.7562630721197313 -0.8392438768921849 0.8932181270184691 0.7922172318820387 0.9214220394527034 0.870072733554861 0.8153306087913836 0.8279744924143355 0.831900232776088 3:7 4:7 5:7 6:8 7:6 8:3 9:3 10:3 11:3 12:4 13:4 14:5 15:5 16:10 17:10 20:2 23:5 24:6 25:6 26:9 27:10 28:11 29:13 30:11 31:8 32:4 
-0.539189461955942 -0.5970842207724296 0.6376223289141665 0.5641055149496651 0.6550653821993929 0.6220962417078803 0.5741932009828021 0.5898542420831093 0.593603614475314 3:3 4:8 5:9 6:9 7:5 8:3 9:3 10:3 11:4 12:4 13:4 14:4 15:9 16:9 24:6 25:7 26:8 27:9 28:10 29:9 30:11 31:10 32:7 
-0.2395294749688931 -0.2744840621958506 0.2952082836071369 0.2510091530319679 0.2892374584673293 0.2740561213407514 0.2441214344752413 0.2618865125322723 0.2616792079014429 3:6 4:8 5:6 6:3 7:3 8:3 9:3 10:5 11:4 12:5 13:9 14:10 15:10 21:4 22:7 23:6 24:8 25:8 26:10 27:12 28:10 29:7 30:3 
